"W1"	"W2"	"W3"
"1"	-1	1	1
"2"	-0.99	0.99	1
"3"	-0.99	1	0.99
"4"	-0.98	0.98	1
"5"	-0.98	0.99	0.99
"6"	-0.98	1	0.98
"7"	-0.97	0.97	1
"8"	-0.97	0.98	0.99
"9"	-0.97	0.99	0.98
"10"	-0.97	1	0.97
"11"	-0.96	0.96	1
"12"	-0.96	0.97	0.99
"13"	-0.96	0.98	0.98
"14"	-0.96	0.99	0.97
"15"	-0.96	1	0.96
"16"	-0.95	0.95	1
"17"	-0.95	0.96	0.99
"18"	-0.95	0.97	0.98
"19"	-0.95	0.98	0.97
"20"	-0.95	0.99	0.96
"21"	-0.95	1	0.95
"22"	-0.94	0.94	1
"23"	-0.94	0.95	0.99
"24"	-0.94	0.96	0.98
"25"	-0.94	0.97	0.97
"26"	-0.94	0.98	0.96
"27"	-0.94	0.99	0.95
"28"	-0.94	1	0.94
"29"	-0.93	0.93	1
"30"	-0.93	0.94	0.99
"31"	-0.93	0.95	0.98
"32"	-0.93	0.96	0.97
"33"	-0.93	0.97	0.96
"34"	-0.93	0.98	0.95
"35"	-0.93	0.99	0.94
"36"	-0.93	1	0.93
"37"	-0.92	0.92	1
"38"	-0.92	0.93	0.99
"39"	-0.92	0.94	0.98
"40"	-0.92	0.95	0.97
"41"	-0.92	0.96	0.96
"42"	-0.92	0.97	0.95
"43"	-0.92	0.98	0.94
"44"	-0.92	0.99	0.93
"45"	-0.92	1	0.92
"46"	-0.91	0.91	1
"47"	-0.91	0.92	0.99
"48"	-0.91	0.93	0.98
"49"	-0.91	0.94	0.97
"50"	-0.91	0.95	0.96
"51"	-0.91	0.96	0.95
"52"	-0.91	0.97	0.94
"53"	-0.91	0.98	0.93
"54"	-0.91	0.99	0.92
"55"	-0.91	1	0.91
"56"	-0.9	0.9	1
"57"	-0.9	0.91	0.99
"58"	-0.9	0.92	0.98
"59"	-0.9	0.93	0.97
"60"	-0.9	0.94	0.96
"61"	-0.9	0.95	0.95
"62"	-0.9	0.96	0.94
"63"	-0.9	0.97	0.93
"64"	-0.9	0.98	0.92
"65"	-0.9	0.99	0.91
"66"	-0.9	1	0.9
"67"	-0.89	0.89	1
"68"	-0.89	0.9	0.99
"69"	-0.89	0.91	0.98
"70"	-0.89	0.92	0.97
"71"	-0.89	0.93	0.96
"72"	-0.89	0.94	0.95
"73"	-0.89	0.95	0.94
"74"	-0.89	0.96	0.93
"75"	-0.89	0.97	0.92
"76"	-0.89	0.98	0.91
"77"	-0.89	0.99	0.9
"78"	-0.89	1	0.89
"79"	-0.88	0.88	1
"80"	-0.88	0.89	0.99
"81"	-0.88	0.9	0.98
"82"	-0.88	0.91	0.97
"83"	-0.88	0.92	0.96
"84"	-0.88	0.93	0.95
"85"	-0.88	0.94	0.94
"86"	-0.88	0.95	0.93
"87"	-0.88	0.96	0.92
"88"	-0.88	0.97	0.91
"89"	-0.88	0.98	0.9
"90"	-0.88	0.99	0.89
"91"	-0.88	1	0.88
"92"	-0.87	0.87	1
"93"	-0.87	0.88	0.99
"94"	-0.87	0.89	0.98
"95"	-0.87	0.9	0.97
"96"	-0.87	0.91	0.96
"97"	-0.87	0.92	0.95
"98"	-0.87	0.93	0.94
"99"	-0.87	0.94	0.93
"100"	-0.87	0.95	0.92
"101"	-0.87	0.96	0.91
"102"	-0.87	0.97	0.9
"103"	-0.87	0.98	0.89
"104"	-0.87	0.99	0.88
"105"	-0.87	1	0.87
"106"	-0.86	0.86	1
"107"	-0.86	0.87	0.99
"108"	-0.86	0.88	0.98
"109"	-0.86	0.89	0.97
"110"	-0.86	0.9	0.96
"111"	-0.86	0.91	0.95
"112"	-0.86	0.92	0.94
"113"	-0.86	0.93	0.93
"114"	-0.86	0.94	0.92
"115"	-0.86	0.95	0.91
"116"	-0.86	0.96	0.9
"117"	-0.86	0.97	0.89
"118"	-0.86	0.98	0.88
"119"	-0.86	0.99	0.87
"120"	-0.86	1	0.86
"121"	-0.85	0.85	1
"122"	-0.85	0.86	0.99
"123"	-0.85	0.87	0.98
"124"	-0.85	0.88	0.97
"125"	-0.85	0.89	0.96
"126"	-0.85	0.9	0.95
"127"	-0.85	0.91	0.94
"128"	-0.85	0.92	0.93
"129"	-0.85	0.93	0.92
"130"	-0.85	0.94	0.91
"131"	-0.85	0.95	0.9
"132"	-0.85	0.96	0.89
"133"	-0.85	0.97	0.88
"134"	-0.85	0.98	0.87
"135"	-0.85	0.99	0.86
"136"	-0.85	1	0.85
"137"	-0.84	0.84	1
"138"	-0.84	0.85	0.99
"139"	-0.84	0.86	0.98
"140"	-0.84	0.87	0.97
"141"	-0.84	0.88	0.96
"142"	-0.84	0.89	0.95
"143"	-0.84	0.9	0.94
"144"	-0.84	0.91	0.93
"145"	-0.84	0.92	0.92
"146"	-0.84	0.93	0.91
"147"	-0.84	0.94	0.9
"148"	-0.84	0.95	0.89
"149"	-0.84	0.96	0.88
"150"	-0.84	0.97	0.87
"151"	-0.84	0.98	0.86
"152"	-0.84	0.99	0.85
"153"	-0.84	1	0.84
"154"	-0.83	0.83	1
"155"	-0.83	0.84	0.99
"156"	-0.83	0.85	0.98
"157"	-0.83	0.86	0.97
"158"	-0.83	0.87	0.96
"159"	-0.83	0.88	0.95
"160"	-0.83	0.89	0.94
"161"	-0.83	0.9	0.93
"162"	-0.83	0.91	0.92
"163"	-0.83	0.92	0.91
"164"	-0.83	0.93	0.9
"165"	-0.83	0.94	0.89
"166"	-0.83	0.95	0.88
"167"	-0.83	0.96	0.87
"168"	-0.83	0.97	0.86
"169"	-0.83	0.98	0.85
"170"	-0.83	0.99	0.84
"171"	-0.83	1	0.83
"172"	-0.82	0.82	1
"173"	-0.82	0.83	0.99
"174"	-0.82	0.84	0.98
"175"	-0.82	0.85	0.97
"176"	-0.82	0.86	0.96
"177"	-0.82	0.87	0.95
"178"	-0.82	0.88	0.94
"179"	-0.82	0.89	0.93
"180"	-0.82	0.9	0.92
"181"	-0.82	0.91	0.91
"182"	-0.82	0.92	0.9
"183"	-0.82	0.93	0.89
"184"	-0.82	0.94	0.88
"185"	-0.82	0.95	0.87
"186"	-0.82	0.96	0.86
"187"	-0.82	0.97	0.85
"188"	-0.82	0.98	0.84
"189"	-0.82	0.99	0.83
"190"	-0.82	1	0.82
"191"	-0.81	0.81	1
"192"	-0.81	0.82	0.99
"193"	-0.81	0.83	0.98
"194"	-0.81	0.84	0.97
"195"	-0.81	0.85	0.96
"196"	-0.81	0.86	0.95
"197"	-0.81	0.87	0.94
"198"	-0.81	0.88	0.93
"199"	-0.81	0.89	0.92
"200"	-0.81	0.9	0.91
"201"	-0.81	0.91	0.9
"202"	-0.81	0.92	0.89
"203"	-0.81	0.93	0.88
"204"	-0.81	0.94	0.87
"205"	-0.81	0.95	0.86
"206"	-0.81	0.96	0.85
"207"	-0.81	0.97	0.84
"208"	-0.81	0.98	0.83
"209"	-0.81	0.99	0.82
"210"	-0.81	1	0.81
"211"	-0.8	0.8	1
"212"	-0.8	0.81	0.99
"213"	-0.8	0.82	0.98
"214"	-0.8	0.83	0.97
"215"	-0.8	0.84	0.96
"216"	-0.8	0.85	0.95
"217"	-0.8	0.86	0.94
"218"	-0.8	0.87	0.93
"219"	-0.8	0.88	0.92
"220"	-0.8	0.89	0.91
"221"	-0.8	0.9	0.9
"222"	-0.8	0.91	0.89
"223"	-0.8	0.92	0.88
"224"	-0.8	0.93	0.87
"225"	-0.8	0.94	0.86
"226"	-0.8	0.95	0.85
"227"	-0.8	0.96	0.84
"228"	-0.8	0.97	0.83
"229"	-0.8	0.98	0.82
"230"	-0.8	0.99	0.81
"231"	-0.8	1	0.8
"232"	-0.79	0.79	1
"233"	-0.79	0.8	0.99
"234"	-0.79	0.81	0.98
"235"	-0.79	0.82	0.97
"236"	-0.79	0.83	0.96
"237"	-0.79	0.84	0.95
"238"	-0.79	0.85	0.94
"239"	-0.79	0.86	0.93
"240"	-0.79	0.87	0.92
"241"	-0.79	0.88	0.91
"242"	-0.79	0.89	0.9
"243"	-0.79	0.9	0.89
"244"	-0.79	0.91	0.88
"245"	-0.79	0.92	0.87
"246"	-0.79	0.93	0.86
"247"	-0.79	0.94	0.85
"248"	-0.79	0.95	0.84
"249"	-0.79	0.96	0.83
"250"	-0.79	0.97	0.82
"251"	-0.79	0.98	0.81
"252"	-0.79	0.99	0.8
"253"	-0.79	1	0.79
"254"	-0.78	0.78	1
"255"	-0.78	0.79	0.99
"256"	-0.78	0.8	0.98
"257"	-0.78	0.81	0.97
"258"	-0.78	0.82	0.96
"259"	-0.78	0.83	0.95
"260"	-0.78	0.84	0.94
"261"	-0.78	0.85	0.93
"262"	-0.78	0.86	0.92
"263"	-0.78	0.87	0.91
"264"	-0.78	0.88	0.9
"265"	-0.78	0.89	0.89
"266"	-0.78	0.9	0.88
"267"	-0.78	0.91	0.87
"268"	-0.78	0.92	0.86
"269"	-0.78	0.93	0.85
"270"	-0.78	0.94	0.84
"271"	-0.78	0.95	0.83
"272"	-0.78	0.96	0.82
"273"	-0.78	0.97	0.81
"274"	-0.78	0.98	0.8
"275"	-0.78	0.99	0.79
"276"	-0.78	1	0.78
"277"	-0.77	0.77	1
"278"	-0.77	0.78	0.99
"279"	-0.77	0.79	0.98
"280"	-0.77	0.8	0.97
"281"	-0.77	0.81	0.96
"282"	-0.77	0.82	0.95
"283"	-0.77	0.83	0.94
"284"	-0.77	0.84	0.93
"285"	-0.77	0.85	0.92
"286"	-0.77	0.86	0.91
"287"	-0.77	0.87	0.9
"288"	-0.77	0.88	0.89
"289"	-0.77	0.89	0.88
"290"	-0.77	0.9	0.87
"291"	-0.77	0.91	0.86
"292"	-0.77	0.92	0.85
"293"	-0.77	0.93	0.84
"294"	-0.77	0.94	0.83
"295"	-0.77	0.95	0.82
"296"	-0.77	0.96	0.81
"297"	-0.77	0.97	0.8
"298"	-0.77	0.98	0.79
"299"	-0.77	0.99	0.78
"300"	-0.77	1	0.77
"301"	-0.76	0.76	1
"302"	-0.76	0.77	0.99
"303"	-0.76	0.78	0.98
"304"	-0.76	0.79	0.97
"305"	-0.76	0.8	0.96
"306"	-0.76	0.81	0.95
"307"	-0.76	0.82	0.94
"308"	-0.76	0.83	0.93
"309"	-0.76	0.84	0.92
"310"	-0.76	0.85	0.91
"311"	-0.76	0.86	0.9
"312"	-0.76	0.87	0.89
"313"	-0.76	0.88	0.88
"314"	-0.76	0.89	0.87
"315"	-0.76	0.9	0.86
"316"	-0.76	0.91	0.85
"317"	-0.76	0.92	0.84
"318"	-0.76	0.93	0.83
"319"	-0.76	0.94	0.82
"320"	-0.76	0.95	0.81
"321"	-0.76	0.96	0.8
"322"	-0.76	0.97	0.79
"323"	-0.76	0.98	0.78
"324"	-0.76	0.99	0.77
"325"	-0.76	1	0.76
"326"	-0.75	0.75	1
"327"	-0.75	0.76	0.99
"328"	-0.75	0.77	0.98
"329"	-0.75	0.78	0.97
"330"	-0.75	0.79	0.96
"331"	-0.75	0.8	0.95
"332"	-0.75	0.81	0.94
"333"	-0.75	0.82	0.93
"334"	-0.75	0.83	0.92
"335"	-0.75	0.84	0.91
"336"	-0.75	0.85	0.9
"337"	-0.75	0.86	0.89
"338"	-0.75	0.87	0.88
"339"	-0.75	0.88	0.87
"340"	-0.75	0.89	0.86
"341"	-0.75	0.9	0.85
"342"	-0.75	0.91	0.84
"343"	-0.75	0.92	0.83
"344"	-0.75	0.93	0.82
"345"	-0.75	0.94	0.81
"346"	-0.75	0.95	0.8
"347"	-0.75	0.96	0.79
"348"	-0.75	0.97	0.78
"349"	-0.75	0.98	0.77
"350"	-0.75	0.99	0.76
"351"	-0.75	1	0.75
"352"	-0.74	0.74	1
"353"	-0.74	0.75	0.99
"354"	-0.74	0.76	0.98
"355"	-0.74	0.77	0.97
"356"	-0.74	0.78	0.96
"357"	-0.74	0.79	0.95
"358"	-0.74	0.8	0.94
"359"	-0.74	0.81	0.93
"360"	-0.74	0.82	0.92
"361"	-0.74	0.83	0.91
"362"	-0.74	0.84	0.9
"363"	-0.74	0.85	0.89
"364"	-0.74	0.86	0.88
"365"	-0.74	0.87	0.87
"366"	-0.74	0.88	0.86
"367"	-0.74	0.89	0.85
"368"	-0.74	0.9	0.84
"369"	-0.74	0.91	0.83
"370"	-0.74	0.92	0.82
"371"	-0.74	0.93	0.81
"372"	-0.74	0.94	0.8
"373"	-0.74	0.95	0.79
"374"	-0.74	0.96	0.78
"375"	-0.74	0.97	0.77
"376"	-0.74	0.98	0.76
"377"	-0.74	0.99	0.75
"378"	-0.74	1	0.74
"379"	-0.73	0.73	1
"380"	-0.73	0.74	0.99
"381"	-0.73	0.75	0.98
"382"	-0.73	0.76	0.97
"383"	-0.73	0.77	0.96
"384"	-0.73	0.78	0.95
"385"	-0.73	0.79	0.94
"386"	-0.73	0.8	0.93
"387"	-0.73	0.81	0.92
"388"	-0.73	0.82	0.91
"389"	-0.73	0.83	0.9
"390"	-0.73	0.84	0.89
"391"	-0.73	0.85	0.88
"392"	-0.73	0.86	0.87
"393"	-0.73	0.87	0.86
"394"	-0.73	0.88	0.85
"395"	-0.73	0.89	0.84
"396"	-0.73	0.9	0.83
"397"	-0.73	0.91	0.82
"398"	-0.73	0.92	0.81
"399"	-0.73	0.93	0.8
"400"	-0.73	0.94	0.79
"401"	-0.73	0.95	0.78
"402"	-0.73	0.96	0.77
"403"	-0.73	0.97	0.76
"404"	-0.73	0.98	0.75
"405"	-0.73	0.99	0.74
"406"	-0.73	1	0.73
"407"	-0.72	0.72	1
"408"	-0.72	0.73	0.99
"409"	-0.72	0.74	0.98
"410"	-0.72	0.75	0.97
"411"	-0.72	0.76	0.96
"412"	-0.72	0.77	0.95
"413"	-0.72	0.78	0.94
"414"	-0.72	0.79	0.93
"415"	-0.72	0.8	0.92
"416"	-0.72	0.81	0.91
"417"	-0.72	0.82	0.9
"418"	-0.72	0.83	0.89
"419"	-0.72	0.84	0.88
"420"	-0.72	0.85	0.87
"421"	-0.72	0.86	0.86
"422"	-0.72	0.87	0.85
"423"	-0.72	0.88	0.84
"424"	-0.72	0.89	0.83
"425"	-0.72	0.9	0.82
"426"	-0.72	0.91	0.81
"427"	-0.72	0.92	0.8
"428"	-0.72	0.93	0.79
"429"	-0.72	0.94	0.78
"430"	-0.72	0.95	0.77
"431"	-0.72	0.96	0.76
"432"	-0.72	0.97	0.75
"433"	-0.72	0.98	0.74
"434"	-0.72	0.99	0.73
"435"	-0.72	1	0.72
"436"	-0.71	0.71	1
"437"	-0.71	0.72	0.99
"438"	-0.71	0.73	0.98
"439"	-0.71	0.74	0.97
"440"	-0.71	0.75	0.96
"441"	-0.71	0.76	0.95
"442"	-0.71	0.77	0.94
"443"	-0.71	0.78	0.93
"444"	-0.71	0.79	0.92
"445"	-0.71	0.8	0.91
"446"	-0.71	0.81	0.9
"447"	-0.71	0.82	0.89
"448"	-0.71	0.83	0.88
"449"	-0.71	0.84	0.87
"450"	-0.71	0.85	0.86
"451"	-0.71	0.86	0.85
"452"	-0.71	0.87	0.84
"453"	-0.71	0.88	0.83
"454"	-0.71	0.89	0.82
"455"	-0.71	0.9	0.81
"456"	-0.71	0.91	0.8
"457"	-0.71	0.92	0.79
"458"	-0.71	0.93	0.78
"459"	-0.71	0.94	0.77
"460"	-0.71	0.95	0.76
"461"	-0.71	0.96	0.75
"462"	-0.71	0.97	0.74
"463"	-0.71	0.98	0.73
"464"	-0.71	0.99	0.72
"465"	-0.71	1	0.71
"466"	-0.7	0.7	1
"467"	-0.7	0.71	0.99
"468"	-0.7	0.72	0.98
"469"	-0.7	0.73	0.97
"470"	-0.7	0.74	0.96
"471"	-0.7	0.75	0.95
"472"	-0.7	0.76	0.94
"473"	-0.7	0.77	0.93
"474"	-0.7	0.78	0.92
"475"	-0.7	0.79	0.91
"476"	-0.7	0.8	0.9
"477"	-0.7	0.81	0.89
"478"	-0.7	0.82	0.88
"479"	-0.7	0.83	0.87
"480"	-0.7	0.84	0.86
"481"	-0.7	0.85	0.85
"482"	-0.7	0.86	0.84
"483"	-0.7	0.87	0.83
"484"	-0.7	0.88	0.82
"485"	-0.7	0.89	0.81
"486"	-0.7	0.9	0.8
"487"	-0.7	0.91	0.79
"488"	-0.7	0.92	0.78
"489"	-0.7	0.93	0.77
"490"	-0.7	0.94	0.76
"491"	-0.7	0.95	0.75
"492"	-0.7	0.96	0.74
"493"	-0.7	0.97	0.73
"494"	-0.7	0.98	0.72
"495"	-0.7	0.99	0.71
"496"	-0.7	1	0.7
"497"	-0.69	0.69	1
"498"	-0.69	0.7	0.99
"499"	-0.69	0.71	0.98
"500"	-0.69	0.72	0.97
"501"	-0.69	0.73	0.96
"502"	-0.69	0.74	0.95
"503"	-0.69	0.75	0.94
"504"	-0.69	0.76	0.93
"505"	-0.69	0.77	0.92
"506"	-0.69	0.78	0.91
"507"	-0.69	0.79	0.9
"508"	-0.69	0.8	0.89
"509"	-0.69	0.81	0.88
"510"	-0.69	0.82	0.87
"511"	-0.69	0.83	0.86
"512"	-0.69	0.84	0.85
"513"	-0.69	0.85	0.84
"514"	-0.69	0.86	0.83
"515"	-0.69	0.87	0.82
"516"	-0.69	0.88	0.81
"517"	-0.69	0.89	0.8
"518"	-0.69	0.9	0.79
"519"	-0.69	0.91	0.78
"520"	-0.69	0.92	0.77
"521"	-0.69	0.93	0.76
"522"	-0.69	0.94	0.75
"523"	-0.69	0.95	0.74
"524"	-0.69	0.96	0.73
"525"	-0.69	0.97	0.72
"526"	-0.69	0.98	0.71
"527"	-0.69	0.99	0.7
"528"	-0.69	1	0.69
"529"	-0.68	0.68	1
"530"	-0.68	0.69	0.99
"531"	-0.68	0.7	0.98
"532"	-0.68	0.71	0.97
"533"	-0.68	0.72	0.96
"534"	-0.68	0.73	0.95
"535"	-0.68	0.74	0.94
"536"	-0.68	0.75	0.93
"537"	-0.68	0.76	0.92
"538"	-0.68	0.77	0.91
"539"	-0.68	0.78	0.9
"540"	-0.68	0.79	0.89
"541"	-0.68	0.8	0.88
"542"	-0.68	0.81	0.87
"543"	-0.68	0.82	0.86
"544"	-0.68	0.83	0.85
"545"	-0.68	0.84	0.84
"546"	-0.68	0.85	0.83
"547"	-0.68	0.86	0.82
"548"	-0.68	0.87	0.81
"549"	-0.68	0.88	0.8
"550"	-0.68	0.89	0.79
"551"	-0.68	0.9	0.78
"552"	-0.68	0.91	0.77
"553"	-0.68	0.92	0.76
"554"	-0.68	0.93	0.75
"555"	-0.68	0.94	0.74
"556"	-0.68	0.95	0.73
"557"	-0.68	0.96	0.72
"558"	-0.68	0.97	0.71
"559"	-0.68	0.98	0.7
"560"	-0.68	0.99	0.69
"561"	-0.68	1	0.68
"562"	-0.67	0.67	1
"563"	-0.67	0.68	0.99
"564"	-0.67	0.69	0.98
"565"	-0.67	0.7	0.97
"566"	-0.67	0.71	0.96
"567"	-0.67	0.72	0.95
"568"	-0.67	0.73	0.94
"569"	-0.67	0.74	0.93
"570"	-0.67	0.75	0.92
"571"	-0.67	0.76	0.91
"572"	-0.67	0.77	0.9
"573"	-0.67	0.78	0.89
"574"	-0.67	0.79	0.88
"575"	-0.67	0.8	0.87
"576"	-0.67	0.81	0.86
"577"	-0.67	0.82	0.85
"578"	-0.67	0.83	0.84
"579"	-0.67	0.84	0.83
"580"	-0.67	0.85	0.82
"581"	-0.67	0.86	0.81
"582"	-0.67	0.87	0.8
"583"	-0.67	0.88	0.79
"584"	-0.67	0.89	0.78
"585"	-0.67	0.9	0.77
"586"	-0.67	0.91	0.76
"587"	-0.67	0.92	0.75
"588"	-0.67	0.93	0.74
"589"	-0.67	0.94	0.73
"590"	-0.67	0.95	0.72
"591"	-0.67	0.96	0.71
"592"	-0.67	0.97	0.7
"593"	-0.67	0.98	0.69
"594"	-0.67	0.99	0.68
"595"	-0.67	1	0.67
"596"	-0.66	0.66	1
"597"	-0.66	0.67	0.99
"598"	-0.66	0.68	0.98
"599"	-0.66	0.69	0.97
"600"	-0.66	0.7	0.96
"601"	-0.66	0.71	0.95
"602"	-0.66	0.72	0.94
"603"	-0.66	0.73	0.93
"604"	-0.66	0.74	0.92
"605"	-0.66	0.75	0.91
"606"	-0.66	0.76	0.9
"607"	-0.66	0.77	0.89
"608"	-0.66	0.78	0.88
"609"	-0.66	0.79	0.87
"610"	-0.66	0.8	0.86
"611"	-0.66	0.81	0.85
"612"	-0.66	0.82	0.84
"613"	-0.66	0.83	0.83
"614"	-0.66	0.84	0.82
"615"	-0.66	0.85	0.81
"616"	-0.66	0.86	0.8
"617"	-0.66	0.87	0.79
"618"	-0.66	0.88	0.78
"619"	-0.66	0.89	0.77
"620"	-0.66	0.9	0.76
"621"	-0.66	0.91	0.75
"622"	-0.66	0.92	0.74
"623"	-0.66	0.93	0.73
"624"	-0.66	0.94	0.72
"625"	-0.66	0.95	0.71
"626"	-0.66	0.96	0.7
"627"	-0.66	0.97	0.69
"628"	-0.66	0.98	0.68
"629"	-0.66	0.99	0.67
"630"	-0.66	1	0.66
"631"	-0.65	0.65	1
"632"	-0.65	0.66	0.99
"633"	-0.65	0.67	0.98
"634"	-0.65	0.68	0.97
"635"	-0.65	0.69	0.96
"636"	-0.65	0.7	0.95
"637"	-0.65	0.71	0.94
"638"	-0.65	0.72	0.93
"639"	-0.65	0.73	0.92
"640"	-0.65	0.74	0.91
"641"	-0.65	0.75	0.9
"642"	-0.65	0.76	0.89
"643"	-0.65	0.77	0.88
"644"	-0.65	0.78	0.87
"645"	-0.65	0.79	0.86
"646"	-0.65	0.8	0.85
"647"	-0.65	0.81	0.84
"648"	-0.65	0.82	0.83
"649"	-0.65	0.83	0.82
"650"	-0.65	0.84	0.81
"651"	-0.65	0.85	0.8
"652"	-0.65	0.86	0.79
"653"	-0.65	0.87	0.78
"654"	-0.65	0.88	0.77
"655"	-0.65	0.89	0.76
"656"	-0.65	0.9	0.75
"657"	-0.65	0.91	0.74
"658"	-0.65	0.92	0.73
"659"	-0.65	0.93	0.72
"660"	-0.65	0.94	0.71
"661"	-0.65	0.95	0.7
"662"	-0.65	0.96	0.69
"663"	-0.65	0.97	0.68
"664"	-0.65	0.98	0.67
"665"	-0.65	0.99	0.66
"666"	-0.65	1	0.65
"667"	-0.64	0.64	1
"668"	-0.64	0.65	0.99
"669"	-0.64	0.66	0.98
"670"	-0.64	0.67	0.97
"671"	-0.64	0.68	0.96
"672"	-0.64	0.69	0.95
"673"	-0.64	0.7	0.94
"674"	-0.64	0.71	0.93
"675"	-0.64	0.72	0.92
"676"	-0.64	0.73	0.91
"677"	-0.64	0.74	0.9
"678"	-0.64	0.75	0.89
"679"	-0.64	0.76	0.88
"680"	-0.64	0.77	0.87
"681"	-0.64	0.78	0.86
"682"	-0.64	0.79	0.85
"683"	-0.64	0.8	0.84
"684"	-0.64	0.81	0.83
"685"	-0.64	0.82	0.82
"686"	-0.64	0.83	0.81
"687"	-0.64	0.84	0.8
"688"	-0.64	0.85	0.79
"689"	-0.64	0.86	0.78
"690"	-0.64	0.87	0.77
"691"	-0.64	0.88	0.76
"692"	-0.64	0.89	0.75
"693"	-0.64	0.9	0.74
"694"	-0.64	0.91	0.73
"695"	-0.64	0.92	0.72
"696"	-0.64	0.93	0.71
"697"	-0.64	0.94	0.7
"698"	-0.64	0.95	0.69
"699"	-0.64	0.96	0.68
"700"	-0.64	0.97	0.67
"701"	-0.64	0.98	0.66
"702"	-0.64	0.99	0.65
"703"	-0.64	1	0.64
"704"	-0.63	0.63	1
"705"	-0.63	0.64	0.99
"706"	-0.63	0.65	0.98
"707"	-0.63	0.66	0.97
"708"	-0.63	0.67	0.96
"709"	-0.63	0.68	0.95
"710"	-0.63	0.69	0.94
"711"	-0.63	0.7	0.93
"712"	-0.63	0.71	0.92
"713"	-0.63	0.72	0.91
"714"	-0.63	0.73	0.9
"715"	-0.63	0.74	0.89
"716"	-0.63	0.75	0.88
"717"	-0.63	0.76	0.87
"718"	-0.63	0.77	0.86
"719"	-0.63	0.78	0.85
"720"	-0.63	0.79	0.84
"721"	-0.63	0.8	0.83
"722"	-0.63	0.81	0.82
"723"	-0.63	0.82	0.81
"724"	-0.63	0.83	0.8
"725"	-0.63	0.84	0.79
"726"	-0.63	0.85	0.78
"727"	-0.63	0.86	0.77
"728"	-0.63	0.87	0.76
"729"	-0.63	0.88	0.75
"730"	-0.63	0.89	0.74
"731"	-0.63	0.9	0.73
"732"	-0.63	0.91	0.72
"733"	-0.63	0.92	0.71
"734"	-0.63	0.93	0.7
"735"	-0.63	0.94	0.69
"736"	-0.63	0.95	0.68
"737"	-0.63	0.96	0.67
"738"	-0.63	0.97	0.66
"739"	-0.63	0.98	0.65
"740"	-0.63	0.99	0.64
"741"	-0.63	1	0.63
"742"	-0.62	0.62	1
"743"	-0.62	0.63	0.99
"744"	-0.62	0.64	0.98
"745"	-0.62	0.65	0.97
"746"	-0.62	0.66	0.96
"747"	-0.62	0.67	0.95
"748"	-0.62	0.68	0.94
"749"	-0.62	0.69	0.93
"750"	-0.62	0.7	0.92
"751"	-0.62	0.71	0.91
"752"	-0.62	0.72	0.9
"753"	-0.62	0.73	0.89
"754"	-0.62	0.74	0.88
"755"	-0.62	0.75	0.87
"756"	-0.62	0.76	0.86
"757"	-0.62	0.77	0.85
"758"	-0.62	0.78	0.84
"759"	-0.62	0.79	0.83
"760"	-0.62	0.8	0.82
"761"	-0.62	0.81	0.81
"762"	-0.62	0.82	0.8
"763"	-0.62	0.83	0.79
"764"	-0.62	0.84	0.78
"765"	-0.62	0.85	0.77
"766"	-0.62	0.86	0.76
"767"	-0.62	0.87	0.75
"768"	-0.62	0.88	0.74
"769"	-0.62	0.89	0.73
"770"	-0.62	0.9	0.72
"771"	-0.62	0.91	0.71
"772"	-0.62	0.92	0.7
"773"	-0.62	0.93	0.69
"774"	-0.62	0.94	0.68
"775"	-0.62	0.95	0.67
"776"	-0.62	0.96	0.66
"777"	-0.62	0.97	0.65
"778"	-0.62	0.98	0.64
"779"	-0.62	0.99	0.63
"780"	-0.62	1	0.62
"781"	-0.61	0.61	1
"782"	-0.61	0.62	0.99
"783"	-0.61	0.63	0.98
"784"	-0.61	0.64	0.97
"785"	-0.61	0.65	0.96
"786"	-0.61	0.66	0.95
"787"	-0.61	0.67	0.94
"788"	-0.61	0.68	0.93
"789"	-0.61	0.69	0.92
"790"	-0.61	0.7	0.91
"791"	-0.61	0.71	0.9
"792"	-0.61	0.72	0.89
"793"	-0.61	0.73	0.88
"794"	-0.61	0.74	0.87
"795"	-0.61	0.75	0.86
"796"	-0.61	0.76	0.85
"797"	-0.61	0.77	0.84
"798"	-0.61	0.78	0.83
"799"	-0.61	0.79	0.82
"800"	-0.61	0.8	0.81
"801"	-0.61	0.81	0.8
"802"	-0.61	0.82	0.79
"803"	-0.61	0.83	0.78
"804"	-0.61	0.84	0.77
"805"	-0.61	0.85	0.76
"806"	-0.61	0.86	0.75
"807"	-0.61	0.87	0.74
"808"	-0.61	0.88	0.73
"809"	-0.61	0.89	0.72
"810"	-0.61	0.9	0.71
"811"	-0.61	0.91	0.7
"812"	-0.61	0.92	0.69
"813"	-0.61	0.93	0.68
"814"	-0.61	0.94	0.67
"815"	-0.61	0.95	0.66
"816"	-0.61	0.96	0.65
"817"	-0.61	0.97	0.64
"818"	-0.61	0.98	0.63
"819"	-0.61	0.99	0.62
"820"	-0.61	1	0.61
"821"	-0.6	0.6	1
"822"	-0.6	0.61	0.99
"823"	-0.6	0.62	0.98
"824"	-0.6	0.63	0.97
"825"	-0.6	0.64	0.96
"826"	-0.6	0.65	0.95
"827"	-0.6	0.66	0.94
"828"	-0.6	0.67	0.93
"829"	-0.6	0.68	0.92
"830"	-0.6	0.69	0.91
"831"	-0.6	0.7	0.9
"832"	-0.6	0.71	0.89
"833"	-0.6	0.72	0.88
"834"	-0.6	0.73	0.87
"835"	-0.6	0.74	0.86
"836"	-0.6	0.75	0.85
"837"	-0.6	0.76	0.84
"838"	-0.6	0.77	0.83
"839"	-0.6	0.78	0.82
"840"	-0.6	0.79	0.81
"841"	-0.6	0.8	0.8
"842"	-0.6	0.81	0.79
"843"	-0.6	0.82	0.78
"844"	-0.6	0.83	0.77
"845"	-0.6	0.84	0.76
"846"	-0.6	0.85	0.75
"847"	-0.6	0.86	0.74
"848"	-0.6	0.87	0.73
"849"	-0.6	0.88	0.72
"850"	-0.6	0.89	0.71
"851"	-0.6	0.9	0.7
"852"	-0.6	0.91	0.69
"853"	-0.6	0.92	0.68
"854"	-0.6	0.93	0.67
"855"	-0.6	0.94	0.66
"856"	-0.6	0.95	0.65
"857"	-0.6	0.96	0.64
"858"	-0.6	0.97	0.63
"859"	-0.6	0.98	0.62
"860"	-0.6	0.99	0.61
"861"	-0.6	1	0.6
"862"	-0.59	0.59	1
"863"	-0.59	0.6	0.99
"864"	-0.59	0.61	0.98
"865"	-0.59	0.62	0.97
"866"	-0.59	0.63	0.96
"867"	-0.59	0.64	0.95
"868"	-0.59	0.65	0.94
"869"	-0.59	0.66	0.93
"870"	-0.59	0.67	0.92
"871"	-0.59	0.68	0.91
"872"	-0.59	0.69	0.9
"873"	-0.59	0.7	0.89
"874"	-0.59	0.71	0.88
"875"	-0.59	0.72	0.87
"876"	-0.59	0.73	0.86
"877"	-0.59	0.74	0.85
"878"	-0.59	0.75	0.84
"879"	-0.59	0.76	0.83
"880"	-0.59	0.77	0.82
"881"	-0.59	0.78	0.81
"882"	-0.59	0.79	0.8
"883"	-0.59	0.8	0.79
"884"	-0.59	0.81	0.78
"885"	-0.59	0.82	0.77
"886"	-0.59	0.83	0.76
"887"	-0.59	0.84	0.75
"888"	-0.59	0.85	0.74
"889"	-0.59	0.86	0.73
"890"	-0.59	0.87	0.72
"891"	-0.59	0.88	0.71
"892"	-0.59	0.89	0.7
"893"	-0.59	0.9	0.69
"894"	-0.59	0.91	0.68
"895"	-0.59	0.92	0.67
"896"	-0.59	0.93	0.66
"897"	-0.59	0.94	0.65
"898"	-0.59	0.95	0.64
"899"	-0.59	0.96	0.63
"900"	-0.59	0.97	0.62
"901"	-0.59	0.98	0.61
"902"	-0.59	0.99	0.6
"903"	-0.59	1	0.59
"904"	-0.58	0.58	1
"905"	-0.58	0.59	0.99
"906"	-0.58	0.6	0.98
"907"	-0.58	0.61	0.97
"908"	-0.58	0.62	0.96
"909"	-0.58	0.63	0.95
"910"	-0.58	0.64	0.94
"911"	-0.58	0.65	0.93
"912"	-0.58	0.66	0.92
"913"	-0.58	0.67	0.91
"914"	-0.58	0.68	0.9
"915"	-0.58	0.69	0.89
"916"	-0.58	0.7	0.88
"917"	-0.58	0.71	0.87
"918"	-0.58	0.72	0.86
"919"	-0.58	0.73	0.85
"920"	-0.58	0.74	0.84
"921"	-0.58	0.75	0.83
"922"	-0.58	0.76	0.82
"923"	-0.58	0.77	0.81
"924"	-0.58	0.78	0.8
"925"	-0.58	0.79	0.79
"926"	-0.58	0.8	0.78
"927"	-0.58	0.81	0.77
"928"	-0.58	0.82	0.76
"929"	-0.58	0.83	0.75
"930"	-0.58	0.84	0.74
"931"	-0.58	0.85	0.73
"932"	-0.58	0.86	0.72
"933"	-0.58	0.87	0.71
"934"	-0.58	0.88	0.7
"935"	-0.58	0.89	0.69
"936"	-0.58	0.9	0.68
"937"	-0.58	0.91	0.67
"938"	-0.58	0.92	0.66
"939"	-0.58	0.93	0.65
"940"	-0.58	0.94	0.64
"941"	-0.58	0.95	0.63
"942"	-0.58	0.96	0.62
"943"	-0.58	0.97	0.61
"944"	-0.58	0.98	0.6
"945"	-0.58	0.99	0.59
"946"	-0.58	1	0.58
"947"	-0.57	0.57	1
"948"	-0.57	0.58	0.99
"949"	-0.57	0.59	0.98
"950"	-0.57	0.6	0.97
"951"	-0.57	0.61	0.96
"952"	-0.57	0.62	0.95
"953"	-0.57	0.63	0.94
"954"	-0.57	0.64	0.93
"955"	-0.57	0.65	0.92
"956"	-0.57	0.66	0.91
"957"	-0.57	0.67	0.9
"958"	-0.57	0.68	0.89
"959"	-0.57	0.69	0.88
"960"	-0.57	0.7	0.87
"961"	-0.57	0.71	0.86
"962"	-0.57	0.72	0.85
"963"	-0.57	0.73	0.84
"964"	-0.57	0.74	0.83
"965"	-0.57	0.75	0.82
"966"	-0.57	0.76	0.81
"967"	-0.57	0.77	0.8
"968"	-0.57	0.78	0.79
"969"	-0.57	0.79	0.78
"970"	-0.57	0.8	0.77
"971"	-0.57	0.81	0.76
"972"	-0.57	0.82	0.75
"973"	-0.57	0.83	0.74
"974"	-0.57	0.84	0.73
"975"	-0.57	0.85	0.72
"976"	-0.57	0.86	0.71
"977"	-0.57	0.87	0.7
"978"	-0.57	0.88	0.69
"979"	-0.57	0.89	0.68
"980"	-0.57	0.9	0.67
"981"	-0.57	0.91	0.66
"982"	-0.57	0.92	0.65
"983"	-0.57	0.93	0.64
"984"	-0.57	0.94	0.63
"985"	-0.57	0.95	0.62
"986"	-0.57	0.96	0.61
"987"	-0.57	0.97	0.6
"988"	-0.57	0.98	0.59
"989"	-0.57	0.99	0.58
"990"	-0.57	1	0.57
"991"	-0.56	0.56	1
"992"	-0.56	0.57	0.99
"993"	-0.56	0.58	0.98
"994"	-0.56	0.59	0.97
"995"	-0.56	0.6	0.96
"996"	-0.56	0.61	0.95
"997"	-0.56	0.62	0.94
"998"	-0.56	0.63	0.93
"999"	-0.56	0.64	0.92
"1000"	-0.56	0.65	0.91
"1001"	-0.56	0.66	0.9
"1002"	-0.56	0.67	0.89
"1003"	-0.56	0.68	0.88
"1004"	-0.56	0.69	0.87
"1005"	-0.56	0.7	0.86
"1006"	-0.56	0.71	0.85
"1007"	-0.56	0.72	0.84
"1008"	-0.56	0.73	0.83
"1009"	-0.56	0.74	0.82
"1010"	-0.56	0.75	0.81
"1011"	-0.56	0.76	0.8
"1012"	-0.56	0.77	0.79
"1013"	-0.56	0.78	0.78
"1014"	-0.56	0.79	0.77
"1015"	-0.56	0.8	0.76
"1016"	-0.56	0.81	0.75
"1017"	-0.56	0.82	0.74
"1018"	-0.56	0.83	0.73
"1019"	-0.56	0.84	0.72
"1020"	-0.56	0.85	0.71
"1021"	-0.56	0.86	0.7
"1022"	-0.56	0.87	0.69
"1023"	-0.56	0.88	0.68
"1024"	-0.56	0.89	0.67
"1025"	-0.56	0.9	0.66
"1026"	-0.56	0.91	0.65
"1027"	-0.56	0.92	0.64
"1028"	-0.56	0.93	0.63
"1029"	-0.56	0.94	0.62
"1030"	-0.56	0.95	0.61
"1031"	-0.56	0.96	0.6
"1032"	-0.56	0.97	0.59
"1033"	-0.56	0.98	0.58
"1034"	-0.56	0.99	0.57
"1035"	-0.56	1	0.56
"1036"	-0.55	0.55	1
"1037"	-0.55	0.56	0.99
"1038"	-0.55	0.57	0.98
"1039"	-0.55	0.58	0.97
"1040"	-0.55	0.59	0.96
"1041"	-0.55	0.6	0.95
"1042"	-0.55	0.61	0.94
"1043"	-0.55	0.62	0.93
"1044"	-0.55	0.63	0.92
"1045"	-0.55	0.64	0.91
"1046"	-0.55	0.65	0.9
"1047"	-0.55	0.66	0.89
"1048"	-0.55	0.67	0.88
"1049"	-0.55	0.68	0.87
"1050"	-0.55	0.69	0.86
"1051"	-0.55	0.7	0.85
"1052"	-0.55	0.71	0.84
"1053"	-0.55	0.72	0.83
"1054"	-0.55	0.73	0.82
"1055"	-0.55	0.74	0.81
"1056"	-0.55	0.75	0.8
"1057"	-0.55	0.76	0.79
"1058"	-0.55	0.77	0.78
"1059"	-0.55	0.78	0.77
"1060"	-0.55	0.79	0.76
"1061"	-0.55	0.8	0.75
"1062"	-0.55	0.81	0.74
"1063"	-0.55	0.82	0.73
"1064"	-0.55	0.83	0.72
"1065"	-0.55	0.84	0.71
"1066"	-0.55	0.85	0.7
"1067"	-0.55	0.86	0.69
"1068"	-0.55	0.87	0.68
"1069"	-0.55	0.88	0.67
"1070"	-0.55	0.89	0.66
"1071"	-0.55	0.9	0.65
"1072"	-0.55	0.91	0.64
"1073"	-0.55	0.92	0.63
"1074"	-0.55	0.93	0.62
"1075"	-0.55	0.94	0.61
"1076"	-0.55	0.95	0.6
"1077"	-0.55	0.96	0.59
"1078"	-0.55	0.97	0.58
"1079"	-0.55	0.98	0.57
"1080"	-0.55	0.99	0.56
"1081"	-0.55	1	0.55
"1082"	-0.54	0.54	1
"1083"	-0.54	0.55	0.99
"1084"	-0.54	0.56	0.98
"1085"	-0.54	0.57	0.97
"1086"	-0.54	0.58	0.96
"1087"	-0.54	0.59	0.95
"1088"	-0.54	0.6	0.94
"1089"	-0.54	0.61	0.93
"1090"	-0.54	0.62	0.92
"1091"	-0.54	0.63	0.91
"1092"	-0.54	0.64	0.9
"1093"	-0.54	0.65	0.89
"1094"	-0.54	0.66	0.88
"1095"	-0.54	0.67	0.87
"1096"	-0.54	0.68	0.86
"1097"	-0.54	0.69	0.85
"1098"	-0.54	0.7	0.84
"1099"	-0.54	0.71	0.83
"1100"	-0.54	0.72	0.82
"1101"	-0.54	0.73	0.81
"1102"	-0.54	0.74	0.8
"1103"	-0.54	0.75	0.79
"1104"	-0.54	0.76	0.78
"1105"	-0.54	0.77	0.77
"1106"	-0.54	0.78	0.76
"1107"	-0.54	0.79	0.75
"1108"	-0.54	0.8	0.74
"1109"	-0.54	0.81	0.73
"1110"	-0.54	0.82	0.72
"1111"	-0.54	0.83	0.71
"1112"	-0.54	0.84	0.7
"1113"	-0.54	0.85	0.69
"1114"	-0.54	0.86	0.68
"1115"	-0.54	0.87	0.67
"1116"	-0.54	0.88	0.66
"1117"	-0.54	0.89	0.65
"1118"	-0.54	0.9	0.64
"1119"	-0.54	0.91	0.63
"1120"	-0.54	0.92	0.62
"1121"	-0.54	0.93	0.61
"1122"	-0.54	0.94	0.6
"1123"	-0.54	0.95	0.59
"1124"	-0.54	0.96	0.58
"1125"	-0.54	0.97	0.57
"1126"	-0.54	0.98	0.56
"1127"	-0.54	0.99	0.55
"1128"	-0.54	1	0.54
"1129"	-0.53	0.53	1
"1130"	-0.53	0.54	0.99
"1131"	-0.53	0.55	0.98
"1132"	-0.53	0.56	0.97
"1133"	-0.53	0.57	0.96
"1134"	-0.53	0.58	0.95
"1135"	-0.53	0.59	0.94
"1136"	-0.53	0.6	0.93
"1137"	-0.53	0.61	0.92
"1138"	-0.53	0.62	0.91
"1139"	-0.53	0.63	0.9
"1140"	-0.53	0.64	0.89
"1141"	-0.53	0.65	0.88
"1142"	-0.53	0.66	0.87
"1143"	-0.53	0.67	0.86
"1144"	-0.53	0.68	0.85
"1145"	-0.53	0.69	0.84
"1146"	-0.53	0.7	0.83
"1147"	-0.53	0.71	0.82
"1148"	-0.53	0.72	0.81
"1149"	-0.53	0.73	0.8
"1150"	-0.53	0.74	0.79
"1151"	-0.53	0.75	0.78
"1152"	-0.53	0.76	0.77
"1153"	-0.53	0.77	0.76
"1154"	-0.53	0.78	0.75
"1155"	-0.53	0.79	0.74
"1156"	-0.53	0.8	0.73
"1157"	-0.53	0.81	0.72
"1158"	-0.53	0.82	0.71
"1159"	-0.53	0.83	0.7
"1160"	-0.53	0.84	0.69
"1161"	-0.53	0.85	0.68
"1162"	-0.53	0.86	0.67
"1163"	-0.53	0.87	0.66
"1164"	-0.53	0.88	0.65
"1165"	-0.53	0.89	0.64
"1166"	-0.53	0.9	0.63
"1167"	-0.53	0.91	0.62
"1168"	-0.53	0.92	0.61
"1169"	-0.53	0.93	0.6
"1170"	-0.53	0.94	0.59
"1171"	-0.53	0.95	0.58
"1172"	-0.53	0.96	0.57
"1173"	-0.53	0.97	0.56
"1174"	-0.53	0.98	0.55
"1175"	-0.53	0.99	0.54
"1176"	-0.53	1	0.53
"1177"	-0.52	0.52	1
"1178"	-0.52	0.53	0.99
"1179"	-0.52	0.54	0.98
"1180"	-0.52	0.55	0.97
"1181"	-0.52	0.56	0.96
"1182"	-0.52	0.57	0.95
"1183"	-0.52	0.58	0.94
"1184"	-0.52	0.59	0.93
"1185"	-0.52	0.6	0.92
"1186"	-0.52	0.61	0.91
"1187"	-0.52	0.62	0.9
"1188"	-0.52	0.63	0.89
"1189"	-0.52	0.64	0.88
"1190"	-0.52	0.65	0.87
"1191"	-0.52	0.66	0.86
"1192"	-0.52	0.67	0.85
"1193"	-0.52	0.68	0.84
"1194"	-0.52	0.69	0.83
"1195"	-0.52	0.7	0.82
"1196"	-0.52	0.71	0.81
"1197"	-0.52	0.72	0.8
"1198"	-0.52	0.73	0.79
"1199"	-0.52	0.74	0.78
"1200"	-0.52	0.75	0.77
"1201"	-0.52	0.76	0.76
"1202"	-0.52	0.77	0.75
"1203"	-0.52	0.78	0.74
"1204"	-0.52	0.79	0.73
"1205"	-0.52	0.8	0.72
"1206"	-0.52	0.81	0.71
"1207"	-0.52	0.82	0.7
"1208"	-0.52	0.83	0.69
"1209"	-0.52	0.84	0.68
"1210"	-0.52	0.85	0.67
"1211"	-0.52	0.86	0.66
"1212"	-0.52	0.87	0.65
"1213"	-0.52	0.88	0.64
"1214"	-0.52	0.89	0.63
"1215"	-0.52	0.9	0.62
"1216"	-0.52	0.91	0.61
"1217"	-0.52	0.92	0.6
"1218"	-0.52	0.93	0.59
"1219"	-0.52	0.94	0.58
"1220"	-0.52	0.95	0.57
"1221"	-0.52	0.96	0.56
"1222"	-0.52	0.97	0.55
"1223"	-0.52	0.98	0.54
"1224"	-0.52	0.99	0.53
"1225"	-0.52	1	0.52
"1226"	-0.51	0.51	1
"1227"	-0.51	0.52	0.99
"1228"	-0.51	0.53	0.98
"1229"	-0.51	0.54	0.97
"1230"	-0.51	0.55	0.96
"1231"	-0.51	0.56	0.95
"1232"	-0.51	0.57	0.94
"1233"	-0.51	0.58	0.93
"1234"	-0.51	0.59	0.92
"1235"	-0.51	0.6	0.91
"1236"	-0.51	0.61	0.9
"1237"	-0.51	0.62	0.89
"1238"	-0.51	0.63	0.88
"1239"	-0.51	0.64	0.87
"1240"	-0.51	0.65	0.86
"1241"	-0.51	0.66	0.85
"1242"	-0.51	0.67	0.84
"1243"	-0.51	0.68	0.83
"1244"	-0.51	0.69	0.82
"1245"	-0.51	0.7	0.81
"1246"	-0.51	0.71	0.8
"1247"	-0.51	0.72	0.79
"1248"	-0.51	0.73	0.78
"1249"	-0.51	0.74	0.77
"1250"	-0.51	0.75	0.76
"1251"	-0.51	0.76	0.75
"1252"	-0.51	0.77	0.74
"1253"	-0.51	0.78	0.73
"1254"	-0.51	0.79	0.72
"1255"	-0.51	0.8	0.71
"1256"	-0.51	0.81	0.7
"1257"	-0.51	0.82	0.69
"1258"	-0.51	0.83	0.68
"1259"	-0.51	0.84	0.67
"1260"	-0.51	0.85	0.66
"1261"	-0.51	0.86	0.65
"1262"	-0.51	0.87	0.64
"1263"	-0.51	0.88	0.63
"1264"	-0.51	0.89	0.62
"1265"	-0.51	0.9	0.61
"1266"	-0.51	0.91	0.6
"1267"	-0.51	0.92	0.59
"1268"	-0.51	0.93	0.58
"1269"	-0.51	0.94	0.57
"1270"	-0.51	0.95	0.56
"1271"	-0.51	0.96	0.55
"1272"	-0.51	0.97	0.54
"1273"	-0.51	0.98	0.53
"1274"	-0.51	0.99	0.52
"1275"	-0.51	1	0.51
"1276"	-0.5	0.5	1
"1277"	-0.5	0.51	0.99
"1278"	-0.5	0.52	0.98
"1279"	-0.5	0.53	0.97
"1280"	-0.5	0.54	0.96
"1281"	-0.5	0.55	0.95
"1282"	-0.5	0.56	0.94
"1283"	-0.5	0.57	0.93
"1284"	-0.5	0.58	0.92
"1285"	-0.5	0.59	0.91
"1286"	-0.5	0.6	0.9
"1287"	-0.5	0.61	0.89
"1288"	-0.5	0.62	0.88
"1289"	-0.5	0.63	0.87
"1290"	-0.5	0.64	0.86
"1291"	-0.5	0.65	0.85
"1292"	-0.5	0.66	0.84
"1293"	-0.5	0.67	0.83
"1294"	-0.5	0.68	0.82
"1295"	-0.5	0.69	0.81
"1296"	-0.5	0.7	0.8
"1297"	-0.5	0.71	0.79
"1298"	-0.5	0.72	0.78
"1299"	-0.5	0.73	0.77
"1300"	-0.5	0.74	0.76
"1301"	-0.5	0.75	0.75
"1302"	-0.5	0.76	0.74
"1303"	-0.5	0.77	0.73
"1304"	-0.5	0.78	0.72
"1305"	-0.5	0.79	0.71
"1306"	-0.5	0.8	0.7
"1307"	-0.5	0.81	0.69
"1308"	-0.5	0.82	0.68
"1309"	-0.5	0.83	0.67
"1310"	-0.5	0.84	0.66
"1311"	-0.5	0.85	0.65
"1312"	-0.5	0.86	0.64
"1313"	-0.5	0.87	0.63
"1314"	-0.5	0.88	0.62
"1315"	-0.5	0.89	0.61
"1316"	-0.5	0.9	0.6
"1317"	-0.5	0.91	0.59
"1318"	-0.5	0.92	0.58
"1319"	-0.5	0.93	0.57
"1320"	-0.5	0.94	0.56
"1321"	-0.5	0.95	0.55
"1322"	-0.5	0.96	0.54
"1323"	-0.5	0.97	0.53
"1324"	-0.5	0.98	0.52
"1325"	-0.5	0.99	0.51
"1326"	-0.5	1	0.5
"1327"	-0.49	0.49	1
"1328"	-0.49	0.5	0.99
"1329"	-0.49	0.51	0.98
"1330"	-0.49	0.52	0.97
"1331"	-0.49	0.53	0.96
"1332"	-0.49	0.54	0.95
"1333"	-0.49	0.55	0.94
"1334"	-0.49	0.56	0.93
"1335"	-0.49	0.57	0.92
"1336"	-0.49	0.58	0.91
"1337"	-0.49	0.59	0.9
"1338"	-0.49	0.6	0.89
"1339"	-0.49	0.61	0.88
"1340"	-0.49	0.62	0.87
"1341"	-0.49	0.63	0.86
"1342"	-0.49	0.64	0.85
"1343"	-0.49	0.65	0.84
"1344"	-0.49	0.66	0.83
"1345"	-0.49	0.67	0.82
"1346"	-0.49	0.68	0.81
"1347"	-0.49	0.69	0.8
"1348"	-0.49	0.7	0.79
"1349"	-0.49	0.71	0.78
"1350"	-0.49	0.72	0.77
"1351"	-0.49	0.73	0.76
"1352"	-0.49	0.74	0.75
"1353"	-0.49	0.75	0.74
"1354"	-0.49	0.76	0.73
"1355"	-0.49	0.77	0.72
"1356"	-0.49	0.78	0.71
"1357"	-0.49	0.79	0.7
"1358"	-0.49	0.8	0.69
"1359"	-0.49	0.81	0.68
"1360"	-0.49	0.82	0.67
"1361"	-0.49	0.83	0.66
"1362"	-0.49	0.84	0.65
"1363"	-0.49	0.85	0.64
"1364"	-0.49	0.86	0.63
"1365"	-0.49	0.87	0.62
"1366"	-0.49	0.88	0.61
"1367"	-0.49	0.89	0.6
"1368"	-0.49	0.9	0.59
"1369"	-0.49	0.91	0.58
"1370"	-0.49	0.92	0.57
"1371"	-0.49	0.93	0.56
"1372"	-0.49	0.94	0.55
"1373"	-0.49	0.95	0.54
"1374"	-0.49	0.96	0.53
"1375"	-0.49	0.97	0.52
"1376"	-0.49	0.98	0.51
"1377"	-0.49	0.99	0.5
"1378"	-0.49	1	0.49
"1379"	-0.48	0.48	1
"1380"	-0.48	0.49	0.99
"1381"	-0.48	0.5	0.98
"1382"	-0.48	0.51	0.97
"1383"	-0.48	0.52	0.96
"1384"	-0.48	0.53	0.95
"1385"	-0.48	0.54	0.94
"1386"	-0.48	0.55	0.93
"1387"	-0.48	0.56	0.92
"1388"	-0.48	0.57	0.91
"1389"	-0.48	0.58	0.9
"1390"	-0.48	0.59	0.89
"1391"	-0.48	0.6	0.88
"1392"	-0.48	0.61	0.87
"1393"	-0.48	0.62	0.86
"1394"	-0.48	0.63	0.85
"1395"	-0.48	0.64	0.84
"1396"	-0.48	0.65	0.83
"1397"	-0.48	0.66	0.82
"1398"	-0.48	0.67	0.81
"1399"	-0.48	0.68	0.8
"1400"	-0.48	0.69	0.79
"1401"	-0.48	0.7	0.78
"1402"	-0.48	0.71	0.77
"1403"	-0.48	0.72	0.76
"1404"	-0.48	0.73	0.75
"1405"	-0.48	0.74	0.74
"1406"	-0.48	0.75	0.73
"1407"	-0.48	0.76	0.72
"1408"	-0.48	0.77	0.71
"1409"	-0.48	0.78	0.7
"1410"	-0.48	0.79	0.69
"1411"	-0.48	0.8	0.68
"1412"	-0.48	0.81	0.67
"1413"	-0.48	0.82	0.66
"1414"	-0.48	0.83	0.65
"1415"	-0.48	0.84	0.64
"1416"	-0.48	0.85	0.63
"1417"	-0.48	0.86	0.62
"1418"	-0.48	0.87	0.61
"1419"	-0.48	0.88	0.6
"1420"	-0.48	0.89	0.59
"1421"	-0.48	0.9	0.58
"1422"	-0.48	0.91	0.57
"1423"	-0.48	0.92	0.56
"1424"	-0.48	0.93	0.55
"1425"	-0.48	0.94	0.54
"1426"	-0.48	0.95	0.53
"1427"	-0.48	0.96	0.52
"1428"	-0.48	0.97	0.51
"1429"	-0.48	0.98	0.5
"1430"	-0.48	0.99	0.49
"1431"	-0.48	1	0.48
"1432"	-0.47	0.47	1
"1433"	-0.47	0.48	0.99
"1434"	-0.47	0.49	0.98
"1435"	-0.47	0.5	0.97
"1436"	-0.47	0.51	0.96
"1437"	-0.47	0.52	0.95
"1438"	-0.47	0.53	0.94
"1439"	-0.47	0.54	0.93
"1440"	-0.47	0.55	0.92
"1441"	-0.47	0.56	0.91
"1442"	-0.47	0.57	0.9
"1443"	-0.47	0.58	0.89
"1444"	-0.47	0.59	0.88
"1445"	-0.47	0.6	0.87
"1446"	-0.47	0.61	0.86
"1447"	-0.47	0.62	0.85
"1448"	-0.47	0.63	0.84
"1449"	-0.47	0.64	0.83
"1450"	-0.47	0.65	0.82
"1451"	-0.47	0.66	0.81
"1452"	-0.47	0.67	0.8
"1453"	-0.47	0.68	0.79
"1454"	-0.47	0.69	0.78
"1455"	-0.47	0.7	0.77
"1456"	-0.47	0.71	0.76
"1457"	-0.47	0.72	0.75
"1458"	-0.47	0.73	0.74
"1459"	-0.47	0.74	0.73
"1460"	-0.47	0.75	0.72
"1461"	-0.47	0.76	0.71
"1462"	-0.47	0.77	0.7
"1463"	-0.47	0.78	0.69
"1464"	-0.47	0.79	0.68
"1465"	-0.47	0.8	0.67
"1466"	-0.47	0.81	0.66
"1467"	-0.47	0.82	0.65
"1468"	-0.47	0.83	0.64
"1469"	-0.47	0.84	0.63
"1470"	-0.47	0.85	0.62
"1471"	-0.47	0.86	0.61
"1472"	-0.47	0.87	0.6
"1473"	-0.47	0.88	0.59
"1474"	-0.47	0.89	0.58
"1475"	-0.47	0.9	0.57
"1476"	-0.47	0.91	0.56
"1477"	-0.47	0.92	0.55
"1478"	-0.47	0.93	0.54
"1479"	-0.47	0.94	0.53
"1480"	-0.47	0.95	0.52
"1481"	-0.47	0.96	0.51
"1482"	-0.47	0.97	0.5
"1483"	-0.47	0.98	0.49
"1484"	-0.47	0.99	0.48
"1485"	-0.47	1	0.47
"1486"	-0.46	0.46	1
"1487"	-0.46	0.47	0.99
"1488"	-0.46	0.48	0.98
"1489"	-0.46	0.49	0.97
"1490"	-0.46	0.5	0.96
"1491"	-0.46	0.51	0.95
"1492"	-0.46	0.52	0.94
"1493"	-0.46	0.53	0.93
"1494"	-0.46	0.54	0.92
"1495"	-0.46	0.55	0.91
"1496"	-0.46	0.56	0.9
"1497"	-0.46	0.57	0.89
"1498"	-0.46	0.58	0.88
"1499"	-0.46	0.59	0.87
"1500"	-0.46	0.6	0.86
"1501"	-0.46	0.61	0.85
"1502"	-0.46	0.62	0.84
"1503"	-0.46	0.63	0.83
"1504"	-0.46	0.64	0.82
"1505"	-0.46	0.65	0.81
"1506"	-0.46	0.66	0.8
"1507"	-0.46	0.67	0.79
"1508"	-0.46	0.68	0.78
"1509"	-0.46	0.69	0.77
"1510"	-0.46	0.7	0.76
"1511"	-0.46	0.71	0.75
"1512"	-0.46	0.72	0.74
"1513"	-0.46	0.73	0.73
"1514"	-0.46	0.74	0.72
"1515"	-0.46	0.75	0.71
"1516"	-0.46	0.76	0.7
"1517"	-0.46	0.77	0.69
"1518"	-0.46	0.78	0.68
"1519"	-0.46	0.79	0.67
"1520"	-0.46	0.8	0.66
"1521"	-0.46	0.81	0.65
"1522"	-0.46	0.82	0.64
"1523"	-0.46	0.83	0.63
"1524"	-0.46	0.84	0.62
"1525"	-0.46	0.85	0.61
"1526"	-0.46	0.86	0.6
"1527"	-0.46	0.87	0.59
"1528"	-0.46	0.88	0.58
"1529"	-0.46	0.89	0.57
"1530"	-0.46	0.9	0.56
"1531"	-0.46	0.91	0.55
"1532"	-0.46	0.92	0.54
"1533"	-0.46	0.93	0.53
"1534"	-0.46	0.94	0.52
"1535"	-0.46	0.95	0.51
"1536"	-0.46	0.96	0.5
"1537"	-0.46	0.97	0.49
"1538"	-0.46	0.98	0.48
"1539"	-0.46	0.99	0.47
"1540"	-0.46	1	0.46
"1541"	-0.45	0.45	1
"1542"	-0.45	0.46	0.99
"1543"	-0.45	0.47	0.98
"1544"	-0.45	0.48	0.97
"1545"	-0.45	0.49	0.96
"1546"	-0.45	0.5	0.95
"1547"	-0.45	0.51	0.94
"1548"	-0.45	0.52	0.93
"1549"	-0.45	0.53	0.92
"1550"	-0.45	0.54	0.91
"1551"	-0.45	0.55	0.9
"1552"	-0.45	0.56	0.89
"1553"	-0.45	0.57	0.88
"1554"	-0.45	0.58	0.87
"1555"	-0.45	0.59	0.86
"1556"	-0.45	0.6	0.85
"1557"	-0.45	0.61	0.84
"1558"	-0.45	0.62	0.83
"1559"	-0.45	0.63	0.82
"1560"	-0.45	0.64	0.81
"1561"	-0.45	0.65	0.8
"1562"	-0.45	0.66	0.79
"1563"	-0.45	0.67	0.78
"1564"	-0.45	0.68	0.77
"1565"	-0.45	0.69	0.76
"1566"	-0.45	0.7	0.75
"1567"	-0.45	0.71	0.74
"1568"	-0.45	0.72	0.73
"1569"	-0.45	0.73	0.72
"1570"	-0.45	0.74	0.71
"1571"	-0.45	0.75	0.7
"1572"	-0.45	0.76	0.69
"1573"	-0.45	0.77	0.68
"1574"	-0.45	0.78	0.67
"1575"	-0.45	0.79	0.66
"1576"	-0.45	0.8	0.65
"1577"	-0.45	0.81	0.64
"1578"	-0.45	0.82	0.63
"1579"	-0.45	0.83	0.62
"1580"	-0.45	0.84	0.61
"1581"	-0.45	0.85	0.6
"1582"	-0.45	0.86	0.59
"1583"	-0.45	0.87	0.58
"1584"	-0.45	0.88	0.57
"1585"	-0.45	0.89	0.56
"1586"	-0.45	0.9	0.55
"1587"	-0.45	0.91	0.54
"1588"	-0.45	0.92	0.53
"1589"	-0.45	0.93	0.52
"1590"	-0.45	0.94	0.51
"1591"	-0.45	0.95	0.5
"1592"	-0.45	0.96	0.49
"1593"	-0.45	0.97	0.48
"1594"	-0.45	0.98	0.47
"1595"	-0.45	0.99	0.46
"1596"	-0.45	1	0.45
"1597"	-0.44	0.44	1
"1598"	-0.44	0.45	0.99
"1599"	-0.44	0.46	0.98
"1600"	-0.44	0.47	0.97
"1601"	-0.44	0.48	0.96
"1602"	-0.44	0.49	0.95
"1603"	-0.44	0.5	0.94
"1604"	-0.44	0.51	0.93
"1605"	-0.44	0.52	0.92
"1606"	-0.44	0.53	0.91
"1607"	-0.44	0.54	0.9
"1608"	-0.44	0.55	0.89
"1609"	-0.44	0.56	0.88
"1610"	-0.44	0.57	0.87
"1611"	-0.44	0.58	0.86
"1612"	-0.44	0.59	0.85
"1613"	-0.44	0.6	0.84
"1614"	-0.44	0.61	0.83
"1615"	-0.44	0.62	0.82
"1616"	-0.44	0.63	0.81
"1617"	-0.44	0.64	0.8
"1618"	-0.44	0.65	0.79
"1619"	-0.44	0.66	0.78
"1620"	-0.44	0.67	0.77
"1621"	-0.44	0.68	0.76
"1622"	-0.44	0.69	0.75
"1623"	-0.44	0.7	0.74
"1624"	-0.44	0.71	0.73
"1625"	-0.44	0.72	0.72
"1626"	-0.44	0.73	0.71
"1627"	-0.44	0.74	0.7
"1628"	-0.44	0.75	0.69
"1629"	-0.44	0.76	0.68
"1630"	-0.44	0.77	0.67
"1631"	-0.44	0.78	0.66
"1632"	-0.44	0.79	0.65
"1633"	-0.44	0.8	0.64
"1634"	-0.44	0.81	0.63
"1635"	-0.44	0.82	0.62
"1636"	-0.44	0.83	0.61
"1637"	-0.44	0.84	0.6
"1638"	-0.44	0.85	0.59
"1639"	-0.44	0.86	0.58
"1640"	-0.44	0.87	0.57
"1641"	-0.44	0.88	0.56
"1642"	-0.44	0.89	0.55
"1643"	-0.44	0.9	0.54
"1644"	-0.44	0.91	0.53
"1645"	-0.44	0.92	0.52
"1646"	-0.44	0.93	0.51
"1647"	-0.44	0.94	0.5
"1648"	-0.44	0.95	0.49
"1649"	-0.44	0.96	0.48
"1650"	-0.44	0.97	0.47
"1651"	-0.44	0.98	0.46
"1652"	-0.44	0.99	0.45
"1653"	-0.44	1	0.44
"1654"	-0.43	0.43	1
"1655"	-0.43	0.44	0.99
"1656"	-0.43	0.45	0.98
"1657"	-0.43	0.46	0.97
"1658"	-0.43	0.47	0.96
"1659"	-0.43	0.48	0.95
"1660"	-0.43	0.49	0.94
"1661"	-0.43	0.5	0.93
"1662"	-0.43	0.51	0.92
"1663"	-0.43	0.52	0.91
"1664"	-0.43	0.53	0.9
"1665"	-0.43	0.54	0.89
"1666"	-0.43	0.55	0.88
"1667"	-0.43	0.56	0.87
"1668"	-0.43	0.57	0.86
"1669"	-0.43	0.58	0.85
"1670"	-0.43	0.59	0.84
"1671"	-0.43	0.6	0.83
"1672"	-0.43	0.61	0.82
"1673"	-0.43	0.62	0.81
"1674"	-0.43	0.63	0.8
"1675"	-0.43	0.64	0.79
"1676"	-0.43	0.65	0.78
"1677"	-0.43	0.66	0.77
"1678"	-0.43	0.67	0.76
"1679"	-0.43	0.68	0.75
"1680"	-0.43	0.69	0.74
"1681"	-0.43	0.7	0.73
"1682"	-0.43	0.71	0.72
"1683"	-0.43	0.72	0.71
"1684"	-0.43	0.73	0.7
"1685"	-0.43	0.74	0.69
"1686"	-0.43	0.75	0.68
"1687"	-0.43	0.76	0.67
"1688"	-0.43	0.77	0.66
"1689"	-0.43	0.78	0.65
"1690"	-0.43	0.79	0.64
"1691"	-0.43	0.8	0.63
"1692"	-0.43	0.81	0.62
"1693"	-0.43	0.82	0.61
"1694"	-0.43	0.83	0.6
"1695"	-0.43	0.84	0.59
"1696"	-0.43	0.85	0.58
"1697"	-0.43	0.86	0.57
"1698"	-0.43	0.87	0.56
"1699"	-0.43	0.88	0.55
"1700"	-0.43	0.89	0.54
"1701"	-0.43	0.9	0.53
"1702"	-0.43	0.91	0.52
"1703"	-0.43	0.92	0.51
"1704"	-0.43	0.93	0.5
"1705"	-0.43	0.94	0.49
"1706"	-0.43	0.95	0.48
"1707"	-0.43	0.96	0.47
"1708"	-0.43	0.97	0.46
"1709"	-0.43	0.98	0.45
"1710"	-0.43	0.99	0.44
"1711"	-0.43	1	0.43
"1712"	-0.42	0.42	1
"1713"	-0.42	0.43	0.99
"1714"	-0.42	0.44	0.98
"1715"	-0.42	0.45	0.97
"1716"	-0.42	0.46	0.96
"1717"	-0.42	0.47	0.95
"1718"	-0.42	0.48	0.94
"1719"	-0.42	0.49	0.93
"1720"	-0.42	0.5	0.92
"1721"	-0.42	0.51	0.91
"1722"	-0.42	0.52	0.9
"1723"	-0.42	0.53	0.89
"1724"	-0.42	0.54	0.88
"1725"	-0.42	0.55	0.87
"1726"	-0.42	0.56	0.86
"1727"	-0.42	0.57	0.85
"1728"	-0.42	0.58	0.84
"1729"	-0.42	0.59	0.83
"1730"	-0.42	0.6	0.82
"1731"	-0.42	0.61	0.81
"1732"	-0.42	0.62	0.8
"1733"	-0.42	0.63	0.79
"1734"	-0.42	0.64	0.78
"1735"	-0.42	0.65	0.77
"1736"	-0.42	0.66	0.76
"1737"	-0.42	0.67	0.75
"1738"	-0.42	0.68	0.74
"1739"	-0.42	0.69	0.73
"1740"	-0.42	0.7	0.72
"1741"	-0.42	0.71	0.71
"1742"	-0.42	0.72	0.7
"1743"	-0.42	0.73	0.69
"1744"	-0.42	0.74	0.68
"1745"	-0.42	0.75	0.67
"1746"	-0.42	0.76	0.66
"1747"	-0.42	0.77	0.65
"1748"	-0.42	0.78	0.64
"1749"	-0.42	0.79	0.63
"1750"	-0.42	0.8	0.62
"1751"	-0.42	0.81	0.61
"1752"	-0.42	0.82	0.6
"1753"	-0.42	0.83	0.59
"1754"	-0.42	0.84	0.58
"1755"	-0.42	0.85	0.57
"1756"	-0.42	0.86	0.56
"1757"	-0.42	0.87	0.55
"1758"	-0.42	0.88	0.54
"1759"	-0.42	0.89	0.53
"1760"	-0.42	0.9	0.52
"1761"	-0.42	0.91	0.51
"1762"	-0.42	0.92	0.5
"1763"	-0.42	0.93	0.49
"1764"	-0.42	0.94	0.48
"1765"	-0.42	0.95	0.47
"1766"	-0.42	0.96	0.46
"1767"	-0.42	0.97	0.45
"1768"	-0.42	0.98	0.44
"1769"	-0.42	0.99	0.43
"1770"	-0.42	1	0.42
"1771"	-0.41	0.41	1
"1772"	-0.41	0.42	0.99
"1773"	-0.41	0.43	0.98
"1774"	-0.41	0.44	0.97
"1775"	-0.41	0.45	0.96
"1776"	-0.41	0.46	0.95
"1777"	-0.41	0.47	0.94
"1778"	-0.41	0.48	0.93
"1779"	-0.41	0.49	0.92
"1780"	-0.41	0.5	0.91
"1781"	-0.41	0.51	0.9
"1782"	-0.41	0.52	0.89
"1783"	-0.41	0.53	0.88
"1784"	-0.41	0.54	0.87
"1785"	-0.41	0.55	0.86
"1786"	-0.41	0.56	0.85
"1787"	-0.41	0.57	0.84
"1788"	-0.41	0.58	0.83
"1789"	-0.41	0.59	0.82
"1790"	-0.41	0.6	0.81
"1791"	-0.41	0.61	0.8
"1792"	-0.41	0.62	0.79
"1793"	-0.41	0.63	0.78
"1794"	-0.41	0.64	0.77
"1795"	-0.41	0.65	0.76
"1796"	-0.41	0.66	0.75
"1797"	-0.41	0.67	0.74
"1798"	-0.41	0.68	0.73
"1799"	-0.41	0.69	0.72
"1800"	-0.41	0.7	0.71
"1801"	-0.41	0.71	0.7
"1802"	-0.41	0.72	0.69
"1803"	-0.41	0.73	0.68
"1804"	-0.41	0.74	0.67
"1805"	-0.41	0.75	0.66
"1806"	-0.41	0.76	0.65
"1807"	-0.41	0.77	0.64
"1808"	-0.41	0.78	0.63
"1809"	-0.41	0.79	0.62
"1810"	-0.41	0.8	0.61
"1811"	-0.41	0.81	0.6
"1812"	-0.41	0.82	0.59
"1813"	-0.41	0.83	0.58
"1814"	-0.41	0.84	0.57
"1815"	-0.41	0.85	0.56
"1816"	-0.41	0.86	0.55
"1817"	-0.41	0.87	0.54
"1818"	-0.41	0.88	0.53
"1819"	-0.41	0.89	0.52
"1820"	-0.41	0.9	0.51
"1821"	-0.41	0.91	0.5
"1822"	-0.41	0.92	0.49
"1823"	-0.41	0.93	0.48
"1824"	-0.41	0.94	0.47
"1825"	-0.41	0.95	0.46
"1826"	-0.41	0.96	0.45
"1827"	-0.41	0.97	0.44
"1828"	-0.41	0.98	0.43
"1829"	-0.41	0.99	0.42
"1830"	-0.41	1	0.41
"1831"	-0.4	0.4	1
"1832"	-0.4	0.41	0.99
"1833"	-0.4	0.42	0.98
"1834"	-0.4	0.43	0.97
"1835"	-0.4	0.44	0.96
"1836"	-0.4	0.45	0.95
"1837"	-0.4	0.46	0.94
"1838"	-0.4	0.47	0.93
"1839"	-0.4	0.48	0.92
"1840"	-0.4	0.49	0.91
"1841"	-0.4	0.5	0.9
"1842"	-0.4	0.51	0.89
"1843"	-0.4	0.52	0.88
"1844"	-0.4	0.53	0.87
"1845"	-0.4	0.54	0.86
"1846"	-0.4	0.55	0.85
"1847"	-0.4	0.56	0.84
"1848"	-0.4	0.57	0.83
"1849"	-0.4	0.58	0.82
"1850"	-0.4	0.59	0.81
"1851"	-0.4	0.6	0.8
"1852"	-0.4	0.61	0.79
"1853"	-0.4	0.62	0.78
"1854"	-0.4	0.63	0.77
"1855"	-0.4	0.64	0.76
"1856"	-0.4	0.65	0.75
"1857"	-0.4	0.66	0.74
"1858"	-0.4	0.67	0.73
"1859"	-0.4	0.68	0.72
"1860"	-0.4	0.69	0.71
"1861"	-0.4	0.7	0.7
"1862"	-0.4	0.71	0.69
"1863"	-0.4	0.72	0.68
"1864"	-0.4	0.73	0.67
"1865"	-0.4	0.74	0.66
"1866"	-0.4	0.75	0.65
"1867"	-0.4	0.76	0.64
"1868"	-0.4	0.77	0.63
"1869"	-0.4	0.78	0.62
"1870"	-0.4	0.79	0.61
"1871"	-0.4	0.8	0.6
"1872"	-0.4	0.81	0.59
"1873"	-0.4	0.82	0.58
"1874"	-0.4	0.83	0.57
"1875"	-0.4	0.84	0.56
"1876"	-0.4	0.85	0.55
"1877"	-0.4	0.86	0.54
"1878"	-0.4	0.87	0.53
"1879"	-0.4	0.88	0.52
"1880"	-0.4	0.89	0.51
"1881"	-0.4	0.9	0.5
"1882"	-0.4	0.91	0.49
"1883"	-0.4	0.92	0.48
"1884"	-0.4	0.93	0.47
"1885"	-0.4	0.94	0.46
"1886"	-0.4	0.95	0.45
"1887"	-0.4	0.96	0.44
"1888"	-0.4	0.97	0.43
"1889"	-0.4	0.98	0.42
"1890"	-0.4	0.99	0.41
"1891"	-0.4	1	0.4
"1892"	-0.39	0.39	1
"1893"	-0.39	0.4	0.99
"1894"	-0.39	0.41	0.98
"1895"	-0.39	0.42	0.97
"1896"	-0.39	0.43	0.96
"1897"	-0.39	0.44	0.95
"1898"	-0.39	0.45	0.94
"1899"	-0.39	0.46	0.93
"1900"	-0.39	0.47	0.92
"1901"	-0.39	0.48	0.91
"1902"	-0.39	0.49	0.9
"1903"	-0.39	0.5	0.89
"1904"	-0.39	0.51	0.88
"1905"	-0.39	0.52	0.87
"1906"	-0.39	0.53	0.86
"1907"	-0.39	0.54	0.85
"1908"	-0.39	0.55	0.84
"1909"	-0.39	0.56	0.83
"1910"	-0.39	0.57	0.82
"1911"	-0.39	0.58	0.81
"1912"	-0.39	0.59	0.8
"1913"	-0.39	0.6	0.79
"1914"	-0.39	0.61	0.78
"1915"	-0.39	0.62	0.77
"1916"	-0.39	0.63	0.76
"1917"	-0.39	0.64	0.75
"1918"	-0.39	0.65	0.74
"1919"	-0.39	0.66	0.73
"1920"	-0.39	0.67	0.72
"1921"	-0.39	0.68	0.71
"1922"	-0.39	0.69	0.7
"1923"	-0.39	0.7	0.69
"1924"	-0.39	0.71	0.68
"1925"	-0.39	0.72	0.67
"1926"	-0.39	0.73	0.66
"1927"	-0.39	0.74	0.65
"1928"	-0.39	0.75	0.64
"1929"	-0.39	0.76	0.63
"1930"	-0.39	0.77	0.62
"1931"	-0.39	0.78	0.61
"1932"	-0.39	0.79	0.6
"1933"	-0.39	0.8	0.59
"1934"	-0.39	0.81	0.58
"1935"	-0.39	0.82	0.57
"1936"	-0.39	0.83	0.56
"1937"	-0.39	0.84	0.55
"1938"	-0.39	0.85	0.54
"1939"	-0.39	0.86	0.53
"1940"	-0.39	0.87	0.52
"1941"	-0.39	0.88	0.51
"1942"	-0.39	0.89	0.5
"1943"	-0.39	0.9	0.49
"1944"	-0.39	0.91	0.48
"1945"	-0.39	0.92	0.47
"1946"	-0.39	0.93	0.46
"1947"	-0.39	0.94	0.45
"1948"	-0.39	0.95	0.44
"1949"	-0.39	0.96	0.43
"1950"	-0.39	0.97	0.42
"1951"	-0.39	0.98	0.41
"1952"	-0.39	0.99	0.4
"1953"	-0.39	1	0.39
"1954"	-0.38	0.38	1
"1955"	-0.38	0.39	0.99
"1956"	-0.38	0.4	0.98
"1957"	-0.38	0.41	0.97
"1958"	-0.38	0.42	0.96
"1959"	-0.38	0.43	0.95
"1960"	-0.38	0.44	0.94
"1961"	-0.38	0.45	0.93
"1962"	-0.38	0.46	0.92
"1963"	-0.38	0.47	0.91
"1964"	-0.38	0.48	0.9
"1965"	-0.38	0.49	0.89
"1966"	-0.38	0.5	0.88
"1967"	-0.38	0.51	0.87
"1968"	-0.38	0.52	0.86
"1969"	-0.38	0.53	0.85
"1970"	-0.38	0.54	0.84
"1971"	-0.38	0.55	0.83
"1972"	-0.38	0.56	0.82
"1973"	-0.38	0.57	0.81
"1974"	-0.38	0.58	0.8
"1975"	-0.38	0.59	0.79
"1976"	-0.38	0.6	0.78
"1977"	-0.38	0.61	0.77
"1978"	-0.38	0.62	0.76
"1979"	-0.38	0.63	0.75
"1980"	-0.38	0.64	0.74
"1981"	-0.38	0.65	0.73
"1982"	-0.38	0.66	0.72
"1983"	-0.38	0.67	0.71
"1984"	-0.38	0.68	0.7
"1985"	-0.38	0.69	0.69
"1986"	-0.38	0.7	0.68
"1987"	-0.38	0.71	0.67
"1988"	-0.38	0.72	0.66
"1989"	-0.38	0.73	0.65
"1990"	-0.38	0.74	0.64
"1991"	-0.38	0.75	0.63
"1992"	-0.38	0.76	0.62
"1993"	-0.38	0.77	0.61
"1994"	-0.38	0.78	0.6
"1995"	-0.38	0.79	0.59
"1996"	-0.38	0.8	0.58
"1997"	-0.38	0.81	0.57
"1998"	-0.38	0.82	0.56
"1999"	-0.38	0.83	0.55
"2000"	-0.38	0.84	0.54
"2001"	-0.38	0.85	0.53
"2002"	-0.38	0.86	0.52
"2003"	-0.38	0.87	0.51
"2004"	-0.38	0.88	0.5
"2005"	-0.38	0.89	0.49
"2006"	-0.38	0.9	0.48
"2007"	-0.38	0.91	0.47
"2008"	-0.38	0.92	0.46
"2009"	-0.38	0.93	0.45
"2010"	-0.38	0.94	0.44
"2011"	-0.38	0.95	0.43
"2012"	-0.38	0.96	0.42
"2013"	-0.38	0.97	0.41
"2014"	-0.38	0.98	0.4
"2015"	-0.38	0.99	0.39
"2016"	-0.38	1	0.38
"2017"	-0.37	0.37	1
"2018"	-0.37	0.38	0.99
"2019"	-0.37	0.39	0.98
"2020"	-0.37	0.4	0.97
"2021"	-0.37	0.41	0.96
"2022"	-0.37	0.42	0.95
"2023"	-0.37	0.43	0.94
"2024"	-0.37	0.44	0.93
"2025"	-0.37	0.45	0.92
"2026"	-0.37	0.46	0.91
"2027"	-0.37	0.47	0.9
"2028"	-0.37	0.48	0.89
"2029"	-0.37	0.49	0.88
"2030"	-0.37	0.5	0.87
"2031"	-0.37	0.51	0.86
"2032"	-0.37	0.52	0.85
"2033"	-0.37	0.53	0.84
"2034"	-0.37	0.54	0.83
"2035"	-0.37	0.55	0.82
"2036"	-0.37	0.56	0.81
"2037"	-0.37	0.57	0.8
"2038"	-0.37	0.58	0.79
"2039"	-0.37	0.59	0.78
"2040"	-0.37	0.6	0.77
"2041"	-0.37	0.61	0.76
"2042"	-0.37	0.62	0.75
"2043"	-0.37	0.63	0.74
"2044"	-0.37	0.64	0.73
"2045"	-0.37	0.65	0.72
"2046"	-0.37	0.66	0.71
"2047"	-0.37	0.67	0.7
"2048"	-0.37	0.68	0.69
"2049"	-0.37	0.69	0.68
"2050"	-0.37	0.7	0.67
"2051"	-0.37	0.71	0.66
"2052"	-0.37	0.72	0.65
"2053"	-0.37	0.73	0.64
"2054"	-0.37	0.74	0.63
"2055"	-0.37	0.75	0.62
"2056"	-0.37	0.76	0.61
"2057"	-0.37	0.77	0.6
"2058"	-0.37	0.78	0.59
"2059"	-0.37	0.79	0.58
"2060"	-0.37	0.8	0.57
"2061"	-0.37	0.81	0.56
"2062"	-0.37	0.82	0.55
"2063"	-0.37	0.83	0.54
"2064"	-0.37	0.84	0.53
"2065"	-0.37	0.85	0.52
"2066"	-0.37	0.86	0.51
"2067"	-0.37	0.87	0.5
"2068"	-0.37	0.88	0.49
"2069"	-0.37	0.89	0.48
"2070"	-0.37	0.9	0.47
"2071"	-0.37	0.91	0.46
"2072"	-0.37	0.92	0.45
"2073"	-0.37	0.93	0.44
"2074"	-0.37	0.94	0.43
"2075"	-0.37	0.95	0.42
"2076"	-0.37	0.96	0.41
"2077"	-0.37	0.97	0.4
"2078"	-0.37	0.98	0.39
"2079"	-0.37	0.99	0.38
"2080"	-0.37	1	0.37
"2081"	-0.36	0.36	1
"2082"	-0.36	0.37	0.99
"2083"	-0.36	0.38	0.98
"2084"	-0.36	0.39	0.97
"2085"	-0.36	0.4	0.96
"2086"	-0.36	0.41	0.95
"2087"	-0.36	0.42	0.94
"2088"	-0.36	0.43	0.93
"2089"	-0.36	0.44	0.92
"2090"	-0.36	0.45	0.91
"2091"	-0.36	0.46	0.9
"2092"	-0.36	0.47	0.89
"2093"	-0.36	0.48	0.88
"2094"	-0.36	0.49	0.87
"2095"	-0.36	0.5	0.86
"2096"	-0.36	0.51	0.85
"2097"	-0.36	0.52	0.84
"2098"	-0.36	0.53	0.83
"2099"	-0.36	0.54	0.82
"2100"	-0.36	0.55	0.81
"2101"	-0.36	0.56	0.8
"2102"	-0.36	0.57	0.79
"2103"	-0.36	0.58	0.78
"2104"	-0.36	0.59	0.77
"2105"	-0.36	0.6	0.76
"2106"	-0.36	0.61	0.75
"2107"	-0.36	0.62	0.74
"2108"	-0.36	0.63	0.73
"2109"	-0.36	0.64	0.72
"2110"	-0.36	0.65	0.71
"2111"	-0.36	0.66	0.7
"2112"	-0.36	0.67	0.69
"2113"	-0.36	0.68	0.68
"2114"	-0.36	0.69	0.67
"2115"	-0.36	0.7	0.66
"2116"	-0.36	0.71	0.65
"2117"	-0.36	0.72	0.64
"2118"	-0.36	0.73	0.63
"2119"	-0.36	0.74	0.62
"2120"	-0.36	0.75	0.61
"2121"	-0.36	0.76	0.6
"2122"	-0.36	0.77	0.59
"2123"	-0.36	0.78	0.58
"2124"	-0.36	0.79	0.57
"2125"	-0.36	0.8	0.56
"2126"	-0.36	0.81	0.55
"2127"	-0.36	0.82	0.54
"2128"	-0.36	0.83	0.53
"2129"	-0.36	0.84	0.52
"2130"	-0.36	0.85	0.51
"2131"	-0.36	0.86	0.5
"2132"	-0.36	0.87	0.49
"2133"	-0.36	0.88	0.48
"2134"	-0.36	0.89	0.47
"2135"	-0.36	0.9	0.46
"2136"	-0.36	0.91	0.45
"2137"	-0.36	0.92	0.44
"2138"	-0.36	0.93	0.43
"2139"	-0.36	0.94	0.42
"2140"	-0.36	0.95	0.41
"2141"	-0.36	0.96	0.4
"2142"	-0.36	0.97	0.39
"2143"	-0.36	0.98	0.38
"2144"	-0.36	0.99	0.37
"2145"	-0.36	1	0.36
"2146"	-0.35	0.35	1
"2147"	-0.35	0.36	0.99
"2148"	-0.35	0.37	0.98
"2149"	-0.35	0.38	0.97
"2150"	-0.35	0.39	0.96
"2151"	-0.35	0.4	0.95
"2152"	-0.35	0.41	0.94
"2153"	-0.35	0.42	0.93
"2154"	-0.35	0.43	0.92
"2155"	-0.35	0.44	0.91
"2156"	-0.35	0.45	0.9
"2157"	-0.35	0.46	0.89
"2158"	-0.35	0.47	0.88
"2159"	-0.35	0.48	0.87
"2160"	-0.35	0.49	0.86
"2161"	-0.35	0.5	0.85
"2162"	-0.35	0.51	0.84
"2163"	-0.35	0.52	0.83
"2164"	-0.35	0.53	0.82
"2165"	-0.35	0.54	0.81
"2166"	-0.35	0.55	0.8
"2167"	-0.35	0.56	0.79
"2168"	-0.35	0.57	0.78
"2169"	-0.35	0.58	0.77
"2170"	-0.35	0.59	0.76
"2171"	-0.35	0.6	0.75
"2172"	-0.35	0.61	0.74
"2173"	-0.35	0.62	0.73
"2174"	-0.35	0.63	0.72
"2175"	-0.35	0.64	0.71
"2176"	-0.35	0.65	0.7
"2177"	-0.35	0.66	0.69
"2178"	-0.35	0.67	0.68
"2179"	-0.35	0.68	0.67
"2180"	-0.35	0.69	0.66
"2181"	-0.35	0.7	0.65
"2182"	-0.35	0.71	0.64
"2183"	-0.35	0.72	0.63
"2184"	-0.35	0.73	0.62
"2185"	-0.35	0.74	0.61
"2186"	-0.35	0.75	0.6
"2187"	-0.35	0.76	0.59
"2188"	-0.35	0.77	0.58
"2189"	-0.35	0.78	0.57
"2190"	-0.35	0.79	0.56
"2191"	-0.35	0.8	0.55
"2192"	-0.35	0.81	0.54
"2193"	-0.35	0.82	0.53
"2194"	-0.35	0.83	0.52
"2195"	-0.35	0.84	0.51
"2196"	-0.35	0.85	0.5
"2197"	-0.35	0.86	0.49
"2198"	-0.35	0.87	0.48
"2199"	-0.35	0.88	0.47
"2200"	-0.35	0.89	0.46
"2201"	-0.35	0.9	0.45
"2202"	-0.35	0.91	0.44
"2203"	-0.35	0.92	0.43
"2204"	-0.35	0.93	0.42
"2205"	-0.35	0.94	0.41
"2206"	-0.35	0.95	0.4
"2207"	-0.35	0.96	0.39
"2208"	-0.35	0.97	0.38
"2209"	-0.35	0.98	0.37
"2210"	-0.35	0.99	0.36
"2211"	-0.35	1	0.35
"2212"	-0.34	0.34	1
"2213"	-0.34	0.35	0.99
"2214"	-0.34	0.36	0.98
"2215"	-0.34	0.37	0.97
"2216"	-0.34	0.38	0.96
"2217"	-0.34	0.39	0.95
"2218"	-0.34	0.4	0.94
"2219"	-0.34	0.41	0.93
"2220"	-0.34	0.42	0.92
"2221"	-0.34	0.43	0.91
"2222"	-0.34	0.44	0.9
"2223"	-0.34	0.45	0.89
"2224"	-0.34	0.46	0.88
"2225"	-0.34	0.47	0.87
"2226"	-0.34	0.48	0.86
"2227"	-0.34	0.49	0.85
"2228"	-0.34	0.5	0.84
"2229"	-0.34	0.51	0.83
"2230"	-0.34	0.52	0.82
"2231"	-0.34	0.53	0.81
"2232"	-0.34	0.54	0.8
"2233"	-0.34	0.55	0.79
"2234"	-0.34	0.56	0.78
"2235"	-0.34	0.57	0.77
"2236"	-0.34	0.58	0.76
"2237"	-0.34	0.59	0.75
"2238"	-0.34	0.6	0.74
"2239"	-0.34	0.61	0.73
"2240"	-0.34	0.62	0.72
"2241"	-0.34	0.63	0.71
"2242"	-0.34	0.64	0.7
"2243"	-0.34	0.65	0.69
"2244"	-0.34	0.66	0.68
"2245"	-0.34	0.67	0.67
"2246"	-0.34	0.68	0.66
"2247"	-0.34	0.69	0.65
"2248"	-0.34	0.7	0.64
"2249"	-0.34	0.71	0.63
"2250"	-0.34	0.72	0.62
"2251"	-0.34	0.73	0.61
"2252"	-0.34	0.74	0.6
"2253"	-0.34	0.75	0.59
"2254"	-0.34	0.76	0.58
"2255"	-0.34	0.77	0.57
"2256"	-0.34	0.78	0.56
"2257"	-0.34	0.79	0.55
"2258"	-0.34	0.8	0.54
"2259"	-0.34	0.81	0.53
"2260"	-0.34	0.82	0.52
"2261"	-0.34	0.83	0.51
"2262"	-0.34	0.84	0.5
"2263"	-0.34	0.85	0.49
"2264"	-0.34	0.86	0.48
"2265"	-0.34	0.87	0.47
"2266"	-0.34	0.88	0.46
"2267"	-0.34	0.89	0.45
"2268"	-0.34	0.9	0.44
"2269"	-0.34	0.91	0.43
"2270"	-0.34	0.92	0.42
"2271"	-0.34	0.93	0.41
"2272"	-0.34	0.94	0.4
"2273"	-0.34	0.95	0.39
"2274"	-0.34	0.96	0.38
"2275"	-0.34	0.97	0.37
"2276"	-0.34	0.98	0.36
"2277"	-0.34	0.99	0.35
"2278"	-0.34	1	0.34
"2279"	-0.33	0.33	1
"2280"	-0.33	0.34	0.99
"2281"	-0.33	0.35	0.98
"2282"	-0.33	0.36	0.97
"2283"	-0.33	0.37	0.96
"2284"	-0.33	0.38	0.95
"2285"	-0.33	0.39	0.94
"2286"	-0.33	0.4	0.93
"2287"	-0.33	0.41	0.92
"2288"	-0.33	0.42	0.91
"2289"	-0.33	0.43	0.9
"2290"	-0.33	0.44	0.89
"2291"	-0.33	0.45	0.88
"2292"	-0.33	0.46	0.87
"2293"	-0.33	0.47	0.86
"2294"	-0.33	0.48	0.85
"2295"	-0.33	0.49	0.84
"2296"	-0.33	0.5	0.83
"2297"	-0.33	0.51	0.82
"2298"	-0.33	0.52	0.81
"2299"	-0.33	0.53	0.8
"2300"	-0.33	0.54	0.79
"2301"	-0.33	0.55	0.78
"2302"	-0.33	0.56	0.77
"2303"	-0.33	0.57	0.76
"2304"	-0.33	0.58	0.75
"2305"	-0.33	0.59	0.74
"2306"	-0.33	0.6	0.73
"2307"	-0.33	0.61	0.72
"2308"	-0.33	0.62	0.71
"2309"	-0.33	0.63	0.7
"2310"	-0.33	0.64	0.69
"2311"	-0.33	0.65	0.68
"2312"	-0.33	0.66	0.67
"2313"	-0.33	0.67	0.66
"2314"	-0.33	0.68	0.65
"2315"	-0.33	0.69	0.64
"2316"	-0.33	0.7	0.63
"2317"	-0.33	0.71	0.62
"2318"	-0.33	0.72	0.61
"2319"	-0.33	0.73	0.6
"2320"	-0.33	0.74	0.59
"2321"	-0.33	0.75	0.58
"2322"	-0.33	0.76	0.57
"2323"	-0.33	0.77	0.56
"2324"	-0.33	0.78	0.55
"2325"	-0.33	0.79	0.54
"2326"	-0.33	0.8	0.53
"2327"	-0.33	0.81	0.52
"2328"	-0.33	0.82	0.51
"2329"	-0.33	0.83	0.5
"2330"	-0.33	0.84	0.49
"2331"	-0.33	0.85	0.48
"2332"	-0.33	0.86	0.47
"2333"	-0.33	0.87	0.46
"2334"	-0.33	0.88	0.45
"2335"	-0.33	0.89	0.44
"2336"	-0.33	0.9	0.43
"2337"	-0.33	0.91	0.42
"2338"	-0.33	0.92	0.41
"2339"	-0.33	0.93	0.4
"2340"	-0.33	0.94	0.39
"2341"	-0.33	0.95	0.38
"2342"	-0.33	0.96	0.37
"2343"	-0.33	0.97	0.36
"2344"	-0.33	0.98	0.35
"2345"	-0.33	0.99	0.34
"2346"	-0.33	1	0.33
"2347"	-0.32	0.32	1
"2348"	-0.32	0.33	0.99
"2349"	-0.32	0.34	0.98
"2350"	-0.32	0.35	0.97
"2351"	-0.32	0.36	0.96
"2352"	-0.32	0.37	0.95
"2353"	-0.32	0.38	0.94
"2354"	-0.32	0.39	0.93
"2355"	-0.32	0.4	0.92
"2356"	-0.32	0.41	0.91
"2357"	-0.32	0.42	0.9
"2358"	-0.32	0.43	0.89
"2359"	-0.32	0.44	0.88
"2360"	-0.32	0.45	0.87
"2361"	-0.32	0.46	0.86
"2362"	-0.32	0.47	0.85
"2363"	-0.32	0.48	0.84
"2364"	-0.32	0.49	0.83
"2365"	-0.32	0.5	0.82
"2366"	-0.32	0.51	0.81
"2367"	-0.32	0.52	0.8
"2368"	-0.32	0.53	0.79
"2369"	-0.32	0.54	0.78
"2370"	-0.32	0.55	0.77
"2371"	-0.32	0.56	0.76
"2372"	-0.32	0.57	0.75
"2373"	-0.32	0.58	0.74
"2374"	-0.32	0.59	0.73
"2375"	-0.32	0.6	0.72
"2376"	-0.32	0.61	0.71
"2377"	-0.32	0.62	0.7
"2378"	-0.32	0.63	0.69
"2379"	-0.32	0.64	0.68
"2380"	-0.32	0.65	0.67
"2381"	-0.32	0.66	0.66
"2382"	-0.32	0.67	0.65
"2383"	-0.32	0.68	0.64
"2384"	-0.32	0.69	0.63
"2385"	-0.32	0.7	0.62
"2386"	-0.32	0.71	0.61
"2387"	-0.32	0.72	0.6
"2388"	-0.32	0.73	0.59
"2389"	-0.32	0.74	0.58
"2390"	-0.32	0.75	0.57
"2391"	-0.32	0.76	0.56
"2392"	-0.32	0.77	0.55
"2393"	-0.32	0.78	0.54
"2394"	-0.32	0.79	0.53
"2395"	-0.32	0.8	0.52
"2396"	-0.32	0.81	0.51
"2397"	-0.32	0.82	0.5
"2398"	-0.32	0.83	0.49
"2399"	-0.32	0.84	0.48
"2400"	-0.32	0.85	0.47
"2401"	-0.32	0.86	0.46
"2402"	-0.32	0.87	0.45
"2403"	-0.32	0.88	0.44
"2404"	-0.32	0.89	0.43
"2405"	-0.32	0.9	0.42
"2406"	-0.32	0.91	0.41
"2407"	-0.32	0.92	0.4
"2408"	-0.32	0.93	0.39
"2409"	-0.32	0.94	0.38
"2410"	-0.32	0.95	0.37
"2411"	-0.32	0.96	0.36
"2412"	-0.32	0.97	0.35
"2413"	-0.32	0.98	0.34
"2414"	-0.32	0.99	0.33
"2415"	-0.32	1	0.32
"2416"	-0.31	0.31	1
"2417"	-0.31	0.32	0.99
"2418"	-0.31	0.33	0.98
"2419"	-0.31	0.34	0.97
"2420"	-0.31	0.35	0.96
"2421"	-0.31	0.36	0.95
"2422"	-0.31	0.37	0.94
"2423"	-0.31	0.38	0.93
"2424"	-0.31	0.39	0.92
"2425"	-0.31	0.4	0.91
"2426"	-0.31	0.41	0.9
"2427"	-0.31	0.42	0.89
"2428"	-0.31	0.43	0.88
"2429"	-0.31	0.44	0.87
"2430"	-0.31	0.45	0.86
"2431"	-0.31	0.46	0.85
"2432"	-0.31	0.47	0.84
"2433"	-0.31	0.48	0.83
"2434"	-0.31	0.49	0.82
"2435"	-0.31	0.5	0.81
"2436"	-0.31	0.51	0.8
"2437"	-0.31	0.52	0.79
"2438"	-0.31	0.53	0.78
"2439"	-0.31	0.54	0.77
"2440"	-0.31	0.55	0.76
"2441"	-0.31	0.56	0.75
"2442"	-0.31	0.57	0.74
"2443"	-0.31	0.58	0.73
"2444"	-0.31	0.59	0.72
"2445"	-0.31	0.6	0.71
"2446"	-0.31	0.61	0.7
"2447"	-0.31	0.62	0.69
"2448"	-0.31	0.63	0.68
"2449"	-0.31	0.64	0.67
"2450"	-0.31	0.65	0.66
"2451"	-0.31	0.66	0.65
"2452"	-0.31	0.67	0.64
"2453"	-0.31	0.68	0.63
"2454"	-0.31	0.69	0.62
"2455"	-0.31	0.7	0.61
"2456"	-0.31	0.71	0.6
"2457"	-0.31	0.72	0.59
"2458"	-0.31	0.73	0.58
"2459"	-0.31	0.74	0.57
"2460"	-0.31	0.75	0.56
"2461"	-0.31	0.76	0.55
"2462"	-0.31	0.77	0.54
"2463"	-0.31	0.78	0.53
"2464"	-0.31	0.79	0.52
"2465"	-0.31	0.8	0.51
"2466"	-0.31	0.81	0.5
"2467"	-0.31	0.82	0.49
"2468"	-0.31	0.83	0.48
"2469"	-0.31	0.84	0.47
"2470"	-0.31	0.85	0.46
"2471"	-0.31	0.86	0.45
"2472"	-0.31	0.87	0.44
"2473"	-0.31	0.88	0.43
"2474"	-0.31	0.89	0.42
"2475"	-0.31	0.9	0.41
"2476"	-0.31	0.91	0.4
"2477"	-0.31	0.92	0.39
"2478"	-0.31	0.93	0.38
"2479"	-0.31	0.94	0.37
"2480"	-0.31	0.95	0.36
"2481"	-0.31	0.96	0.35
"2482"	-0.31	0.97	0.34
"2483"	-0.31	0.98	0.33
"2484"	-0.31	0.99	0.32
"2485"	-0.31	1	0.31
"2486"	-0.3	0.3	1
"2487"	-0.3	0.31	0.99
"2488"	-0.3	0.32	0.98
"2489"	-0.3	0.33	0.97
"2490"	-0.3	0.34	0.96
"2491"	-0.3	0.35	0.95
"2492"	-0.3	0.36	0.94
"2493"	-0.3	0.37	0.93
"2494"	-0.3	0.38	0.92
"2495"	-0.3	0.39	0.91
"2496"	-0.3	0.4	0.9
"2497"	-0.3	0.41	0.89
"2498"	-0.3	0.42	0.88
"2499"	-0.3	0.43	0.87
"2500"	-0.3	0.44	0.86
"2501"	-0.3	0.45	0.85
"2502"	-0.3	0.46	0.84
"2503"	-0.3	0.47	0.83
"2504"	-0.3	0.48	0.82
"2505"	-0.3	0.49	0.81
"2506"	-0.3	0.5	0.8
"2507"	-0.3	0.51	0.79
"2508"	-0.3	0.52	0.78
"2509"	-0.3	0.53	0.77
"2510"	-0.3	0.54	0.76
"2511"	-0.3	0.55	0.75
"2512"	-0.3	0.56	0.74
"2513"	-0.3	0.57	0.73
"2514"	-0.3	0.58	0.72
"2515"	-0.3	0.59	0.71
"2516"	-0.3	0.6	0.7
"2517"	-0.3	0.61	0.69
"2518"	-0.3	0.62	0.68
"2519"	-0.3	0.63	0.67
"2520"	-0.3	0.64	0.66
"2521"	-0.3	0.65	0.65
"2522"	-0.3	0.66	0.64
"2523"	-0.3	0.67	0.63
"2524"	-0.3	0.68	0.62
"2525"	-0.3	0.69	0.61
"2526"	-0.3	0.7	0.6
"2527"	-0.3	0.71	0.59
"2528"	-0.3	0.72	0.58
"2529"	-0.3	0.73	0.57
"2530"	-0.3	0.74	0.56
"2531"	-0.3	0.75	0.55
"2532"	-0.3	0.76	0.54
"2533"	-0.3	0.77	0.53
"2534"	-0.3	0.78	0.52
"2535"	-0.3	0.79	0.51
"2536"	-0.3	0.8	0.5
"2537"	-0.3	0.81	0.49
"2538"	-0.3	0.82	0.48
"2539"	-0.3	0.83	0.47
"2540"	-0.3	0.84	0.46
"2541"	-0.3	0.85	0.45
"2542"	-0.3	0.86	0.44
"2543"	-0.3	0.87	0.43
"2544"	-0.3	0.88	0.42
"2545"	-0.3	0.89	0.41
"2546"	-0.3	0.9	0.4
"2547"	-0.3	0.91	0.39
"2548"	-0.3	0.92	0.38
"2549"	-0.3	0.93	0.37
"2550"	-0.3	0.94	0.36
"2551"	-0.3	0.95	0.35
"2552"	-0.3	0.96	0.34
"2553"	-0.3	0.97	0.33
"2554"	-0.3	0.98	0.32
"2555"	-0.3	0.99	0.31
"2556"	-0.3	1	0.3
"2557"	-0.29	0.29	1
"2558"	-0.29	0.3	0.99
"2559"	-0.29	0.31	0.98
"2560"	-0.29	0.32	0.97
"2561"	-0.29	0.33	0.96
"2562"	-0.29	0.34	0.95
"2563"	-0.29	0.35	0.94
"2564"	-0.29	0.36	0.93
"2565"	-0.29	0.37	0.92
"2566"	-0.29	0.38	0.91
"2567"	-0.29	0.39	0.9
"2568"	-0.29	0.4	0.89
"2569"	-0.29	0.41	0.88
"2570"	-0.29	0.42	0.87
"2571"	-0.29	0.43	0.86
"2572"	-0.29	0.44	0.85
"2573"	-0.29	0.45	0.84
"2574"	-0.29	0.46	0.83
"2575"	-0.29	0.47	0.82
"2576"	-0.29	0.48	0.81
"2577"	-0.29	0.49	0.8
"2578"	-0.29	0.5	0.79
"2579"	-0.29	0.51	0.78
"2580"	-0.29	0.52	0.77
"2581"	-0.29	0.53	0.76
"2582"	-0.29	0.54	0.75
"2583"	-0.29	0.55	0.74
"2584"	-0.29	0.56	0.73
"2585"	-0.29	0.57	0.72
"2586"	-0.29	0.58	0.71
"2587"	-0.29	0.59	0.7
"2588"	-0.29	0.6	0.69
"2589"	-0.29	0.61	0.68
"2590"	-0.29	0.62	0.67
"2591"	-0.29	0.63	0.66
"2592"	-0.29	0.64	0.65
"2593"	-0.29	0.65	0.64
"2594"	-0.29	0.66	0.63
"2595"	-0.29	0.67	0.62
"2596"	-0.29	0.68	0.61
"2597"	-0.29	0.69	0.6
"2598"	-0.29	0.7	0.59
"2599"	-0.29	0.71	0.58
"2600"	-0.29	0.72	0.57
"2601"	-0.29	0.73	0.56
"2602"	-0.29	0.74	0.55
"2603"	-0.29	0.75	0.54
"2604"	-0.29	0.76	0.53
"2605"	-0.29	0.77	0.52
"2606"	-0.29	0.78	0.51
"2607"	-0.29	0.79	0.5
"2608"	-0.29	0.8	0.49
"2609"	-0.29	0.81	0.48
"2610"	-0.29	0.82	0.47
"2611"	-0.29	0.83	0.46
"2612"	-0.29	0.84	0.45
"2613"	-0.29	0.85	0.44
"2614"	-0.29	0.86	0.43
"2615"	-0.29	0.87	0.42
"2616"	-0.29	0.88	0.41
"2617"	-0.29	0.89	0.4
"2618"	-0.29	0.9	0.39
"2619"	-0.29	0.91	0.38
"2620"	-0.29	0.92	0.37
"2621"	-0.29	0.93	0.36
"2622"	-0.29	0.94	0.35
"2623"	-0.29	0.95	0.34
"2624"	-0.29	0.96	0.33
"2625"	-0.29	0.97	0.32
"2626"	-0.29	0.98	0.31
"2627"	-0.29	0.99	0.3
"2628"	-0.29	1	0.29
"2629"	-0.28	0.28	1
"2630"	-0.28	0.29	0.99
"2631"	-0.28	0.3	0.98
"2632"	-0.28	0.31	0.97
"2633"	-0.28	0.32	0.96
"2634"	-0.28	0.33	0.95
"2635"	-0.28	0.34	0.94
"2636"	-0.28	0.35	0.93
"2637"	-0.28	0.36	0.92
"2638"	-0.28	0.37	0.91
"2639"	-0.28	0.38	0.9
"2640"	-0.28	0.39	0.89
"2641"	-0.28	0.4	0.88
"2642"	-0.28	0.41	0.87
"2643"	-0.28	0.42	0.86
"2644"	-0.28	0.43	0.85
"2645"	-0.28	0.44	0.84
"2646"	-0.28	0.45	0.83
"2647"	-0.28	0.46	0.82
"2648"	-0.28	0.47	0.81
"2649"	-0.28	0.48	0.8
"2650"	-0.28	0.49	0.79
"2651"	-0.28	0.5	0.78
"2652"	-0.28	0.51	0.77
"2653"	-0.28	0.52	0.76
"2654"	-0.28	0.53	0.75
"2655"	-0.28	0.54	0.74
"2656"	-0.28	0.55	0.73
"2657"	-0.28	0.56	0.72
"2658"	-0.28	0.57	0.71
"2659"	-0.28	0.58	0.7
"2660"	-0.28	0.59	0.69
"2661"	-0.28	0.6	0.68
"2662"	-0.28	0.61	0.67
"2663"	-0.28	0.62	0.66
"2664"	-0.28	0.63	0.65
"2665"	-0.28	0.64	0.64
"2666"	-0.28	0.65	0.63
"2667"	-0.28	0.66	0.62
"2668"	-0.28	0.67	0.61
"2669"	-0.28	0.68	0.6
"2670"	-0.28	0.69	0.59
"2671"	-0.28	0.7	0.58
"2672"	-0.28	0.71	0.57
"2673"	-0.28	0.72	0.56
"2674"	-0.28	0.73	0.55
"2675"	-0.28	0.74	0.54
"2676"	-0.28	0.75	0.53
"2677"	-0.28	0.76	0.52
"2678"	-0.28	0.77	0.51
"2679"	-0.28	0.78	0.5
"2680"	-0.28	0.79	0.49
"2681"	-0.28	0.8	0.48
"2682"	-0.28	0.81	0.47
"2683"	-0.28	0.82	0.46
"2684"	-0.28	0.83	0.45
"2685"	-0.28	0.84	0.44
"2686"	-0.28	0.85	0.43
"2687"	-0.28	0.86	0.42
"2688"	-0.28	0.87	0.41
"2689"	-0.28	0.88	0.4
"2690"	-0.28	0.89	0.39
"2691"	-0.28	0.9	0.38
"2692"	-0.28	0.91	0.37
"2693"	-0.28	0.92	0.36
"2694"	-0.28	0.93	0.35
"2695"	-0.28	0.94	0.34
"2696"	-0.28	0.95	0.33
"2697"	-0.28	0.96	0.32
"2698"	-0.28	0.97	0.31
"2699"	-0.28	0.98	0.3
"2700"	-0.28	0.99	0.29
"2701"	-0.28	1	0.28
"2702"	-0.27	0.27	1
"2703"	-0.27	0.28	0.99
"2704"	-0.27	0.29	0.98
"2705"	-0.27	0.3	0.97
"2706"	-0.27	0.31	0.96
"2707"	-0.27	0.32	0.95
"2708"	-0.27	0.33	0.94
"2709"	-0.27	0.34	0.93
"2710"	-0.27	0.35	0.92
"2711"	-0.27	0.36	0.91
"2712"	-0.27	0.37	0.9
"2713"	-0.27	0.38	0.89
"2714"	-0.27	0.39	0.88
"2715"	-0.27	0.4	0.87
"2716"	-0.27	0.41	0.86
"2717"	-0.27	0.42	0.85
"2718"	-0.27	0.43	0.84
"2719"	-0.27	0.44	0.83
"2720"	-0.27	0.45	0.82
"2721"	-0.27	0.46	0.81
"2722"	-0.27	0.47	0.8
"2723"	-0.27	0.48	0.79
"2724"	-0.27	0.49	0.78
"2725"	-0.27	0.5	0.77
"2726"	-0.27	0.51	0.76
"2727"	-0.27	0.52	0.75
"2728"	-0.27	0.53	0.74
"2729"	-0.27	0.54	0.73
"2730"	-0.27	0.55	0.72
"2731"	-0.27	0.56	0.71
"2732"	-0.27	0.57	0.7
"2733"	-0.27	0.58	0.69
"2734"	-0.27	0.59	0.68
"2735"	-0.27	0.6	0.67
"2736"	-0.27	0.61	0.66
"2737"	-0.27	0.62	0.65
"2738"	-0.27	0.63	0.64
"2739"	-0.27	0.64	0.63
"2740"	-0.27	0.65	0.62
"2741"	-0.27	0.66	0.61
"2742"	-0.27	0.67	0.6
"2743"	-0.27	0.68	0.59
"2744"	-0.27	0.69	0.58
"2745"	-0.27	0.7	0.57
"2746"	-0.27	0.71	0.56
"2747"	-0.27	0.72	0.55
"2748"	-0.27	0.73	0.54
"2749"	-0.27	0.74	0.53
"2750"	-0.27	0.75	0.52
"2751"	-0.27	0.76	0.51
"2752"	-0.27	0.77	0.5
"2753"	-0.27	0.78	0.49
"2754"	-0.27	0.79	0.48
"2755"	-0.27	0.8	0.47
"2756"	-0.27	0.81	0.46
"2757"	-0.27	0.82	0.45
"2758"	-0.27	0.83	0.44
"2759"	-0.27	0.84	0.43
"2760"	-0.27	0.85	0.42
"2761"	-0.27	0.86	0.41
"2762"	-0.27	0.87	0.4
"2763"	-0.27	0.88	0.39
"2764"	-0.27	0.89	0.38
"2765"	-0.27	0.9	0.37
"2766"	-0.27	0.91	0.36
"2767"	-0.27	0.92	0.35
"2768"	-0.27	0.93	0.34
"2769"	-0.27	0.94	0.33
"2770"	-0.27	0.95	0.32
"2771"	-0.27	0.96	0.31
"2772"	-0.27	0.97	0.3
"2773"	-0.27	0.98	0.29
"2774"	-0.27	0.99	0.28
"2775"	-0.27	1	0.27
"2776"	-0.26	0.26	1
"2777"	-0.26	0.27	0.99
"2778"	-0.26	0.28	0.98
"2779"	-0.26	0.29	0.97
"2780"	-0.26	0.3	0.96
"2781"	-0.26	0.31	0.95
"2782"	-0.26	0.32	0.94
"2783"	-0.26	0.33	0.93
"2784"	-0.26	0.34	0.92
"2785"	-0.26	0.35	0.91
"2786"	-0.26	0.36	0.9
"2787"	-0.26	0.37	0.89
"2788"	-0.26	0.38	0.88
"2789"	-0.26	0.39	0.87
"2790"	-0.26	0.4	0.86
"2791"	-0.26	0.41	0.85
"2792"	-0.26	0.42	0.84
"2793"	-0.26	0.43	0.83
"2794"	-0.26	0.44	0.82
"2795"	-0.26	0.45	0.81
"2796"	-0.26	0.46	0.8
"2797"	-0.26	0.47	0.79
"2798"	-0.26	0.48	0.78
"2799"	-0.26	0.49	0.77
"2800"	-0.26	0.5	0.76
"2801"	-0.26	0.51	0.75
"2802"	-0.26	0.52	0.74
"2803"	-0.26	0.53	0.73
"2804"	-0.26	0.54	0.72
"2805"	-0.26	0.55	0.71
"2806"	-0.26	0.56	0.7
"2807"	-0.26	0.57	0.69
"2808"	-0.26	0.58	0.68
"2809"	-0.26	0.59	0.67
"2810"	-0.26	0.6	0.66
"2811"	-0.26	0.61	0.65
"2812"	-0.26	0.62	0.64
"2813"	-0.26	0.63	0.63
"2814"	-0.26	0.64	0.62
"2815"	-0.26	0.65	0.61
"2816"	-0.26	0.66	0.6
"2817"	-0.26	0.67	0.59
"2818"	-0.26	0.68	0.58
"2819"	-0.26	0.69	0.57
"2820"	-0.26	0.7	0.56
"2821"	-0.26	0.71	0.55
"2822"	-0.26	0.72	0.54
"2823"	-0.26	0.73	0.53
"2824"	-0.26	0.74	0.52
"2825"	-0.26	0.75	0.51
"2826"	-0.26	0.76	0.5
"2827"	-0.26	0.77	0.49
"2828"	-0.26	0.78	0.48
"2829"	-0.26	0.79	0.47
"2830"	-0.26	0.8	0.46
"2831"	-0.26	0.81	0.45
"2832"	-0.26	0.82	0.44
"2833"	-0.26	0.83	0.43
"2834"	-0.26	0.84	0.42
"2835"	-0.26	0.85	0.41
"2836"	-0.26	0.86	0.4
"2837"	-0.26	0.87	0.39
"2838"	-0.26	0.88	0.38
"2839"	-0.26	0.89	0.37
"2840"	-0.26	0.9	0.36
"2841"	-0.26	0.91	0.35
"2842"	-0.26	0.92	0.34
"2843"	-0.26	0.93	0.33
"2844"	-0.26	0.94	0.32
"2845"	-0.26	0.95	0.31
"2846"	-0.26	0.96	0.3
"2847"	-0.26	0.97	0.29
"2848"	-0.26	0.98	0.28
"2849"	-0.26	0.99	0.27
"2850"	-0.26	1	0.26
"2851"	-0.25	0.25	1
"2852"	-0.25	0.26	0.99
"2853"	-0.25	0.27	0.98
"2854"	-0.25	0.28	0.97
"2855"	-0.25	0.29	0.96
"2856"	-0.25	0.3	0.95
"2857"	-0.25	0.31	0.94
"2858"	-0.25	0.32	0.93
"2859"	-0.25	0.33	0.92
"2860"	-0.25	0.34	0.91
"2861"	-0.25	0.35	0.9
"2862"	-0.25	0.36	0.89
"2863"	-0.25	0.37	0.88
"2864"	-0.25	0.38	0.87
"2865"	-0.25	0.39	0.86
"2866"	-0.25	0.4	0.85
"2867"	-0.25	0.41	0.84
"2868"	-0.25	0.42	0.83
"2869"	-0.25	0.43	0.82
"2870"	-0.25	0.44	0.81
"2871"	-0.25	0.45	0.8
"2872"	-0.25	0.46	0.79
"2873"	-0.25	0.47	0.78
"2874"	-0.25	0.48	0.77
"2875"	-0.25	0.49	0.76
"2876"	-0.25	0.5	0.75
"2877"	-0.25	0.51	0.74
"2878"	-0.25	0.52	0.73
"2879"	-0.25	0.53	0.72
"2880"	-0.25	0.54	0.71
"2881"	-0.25	0.55	0.7
"2882"	-0.25	0.56	0.69
"2883"	-0.25	0.57	0.68
"2884"	-0.25	0.58	0.67
"2885"	-0.25	0.59	0.66
"2886"	-0.25	0.6	0.65
"2887"	-0.25	0.61	0.64
"2888"	-0.25	0.62	0.63
"2889"	-0.25	0.63	0.62
"2890"	-0.25	0.64	0.61
"2891"	-0.25	0.65	0.6
"2892"	-0.25	0.66	0.59
"2893"	-0.25	0.67	0.58
"2894"	-0.25	0.68	0.57
"2895"	-0.25	0.69	0.56
"2896"	-0.25	0.7	0.55
"2897"	-0.25	0.71	0.54
"2898"	-0.25	0.72	0.53
"2899"	-0.25	0.73	0.52
"2900"	-0.25	0.74	0.51
"2901"	-0.25	0.75	0.5
"2902"	-0.25	0.76	0.49
"2903"	-0.25	0.77	0.48
"2904"	-0.25	0.78	0.47
"2905"	-0.25	0.79	0.46
"2906"	-0.25	0.8	0.45
"2907"	-0.25	0.81	0.44
"2908"	-0.25	0.82	0.43
"2909"	-0.25	0.83	0.42
"2910"	-0.25	0.84	0.41
"2911"	-0.25	0.85	0.4
"2912"	-0.25	0.86	0.39
"2913"	-0.25	0.87	0.38
"2914"	-0.25	0.88	0.37
"2915"	-0.25	0.89	0.36
"2916"	-0.25	0.9	0.35
"2917"	-0.25	0.91	0.34
"2918"	-0.25	0.92	0.33
"2919"	-0.25	0.93	0.32
"2920"	-0.25	0.94	0.31
"2921"	-0.25	0.95	0.3
"2922"	-0.25	0.96	0.29
"2923"	-0.25	0.97	0.28
"2924"	-0.25	0.98	0.27
"2925"	-0.25	0.99	0.26
"2926"	-0.25	1	0.25
"2927"	-0.24	0.24	1
"2928"	-0.24	0.25	0.99
"2929"	-0.24	0.26	0.98
"2930"	-0.24	0.27	0.97
"2931"	-0.24	0.28	0.96
"2932"	-0.24	0.29	0.95
"2933"	-0.24	0.3	0.94
"2934"	-0.24	0.31	0.93
"2935"	-0.24	0.32	0.92
"2936"	-0.24	0.33	0.91
"2937"	-0.24	0.34	0.9
"2938"	-0.24	0.35	0.89
"2939"	-0.24	0.36	0.88
"2940"	-0.24	0.37	0.87
"2941"	-0.24	0.38	0.86
"2942"	-0.24	0.39	0.85
"2943"	-0.24	0.4	0.84
"2944"	-0.24	0.41	0.83
"2945"	-0.24	0.42	0.82
"2946"	-0.24	0.43	0.81
"2947"	-0.24	0.44	0.8
"2948"	-0.24	0.45	0.79
"2949"	-0.24	0.46	0.78
"2950"	-0.24	0.47	0.77
"2951"	-0.24	0.48	0.76
"2952"	-0.24	0.49	0.75
"2953"	-0.24	0.5	0.74
"2954"	-0.24	0.51	0.73
"2955"	-0.24	0.52	0.72
"2956"	-0.24	0.53	0.71
"2957"	-0.24	0.54	0.7
"2958"	-0.24	0.55	0.69
"2959"	-0.24	0.56	0.68
"2960"	-0.24	0.57	0.67
"2961"	-0.24	0.58	0.66
"2962"	-0.24	0.59	0.65
"2963"	-0.24	0.6	0.64
"2964"	-0.24	0.61	0.63
"2965"	-0.24	0.62	0.62
"2966"	-0.24	0.63	0.61
"2967"	-0.24	0.64	0.6
"2968"	-0.24	0.65	0.59
"2969"	-0.24	0.66	0.58
"2970"	-0.24	0.67	0.57
"2971"	-0.24	0.68	0.56
"2972"	-0.24	0.69	0.55
"2973"	-0.24	0.7	0.54
"2974"	-0.24	0.71	0.53
"2975"	-0.24	0.72	0.52
"2976"	-0.24	0.73	0.51
"2977"	-0.24	0.74	0.5
"2978"	-0.24	0.75	0.49
"2979"	-0.24	0.76	0.48
"2980"	-0.24	0.77	0.47
"2981"	-0.24	0.78	0.46
"2982"	-0.24	0.79	0.45
"2983"	-0.24	0.8	0.44
"2984"	-0.24	0.81	0.43
"2985"	-0.24	0.82	0.42
"2986"	-0.24	0.83	0.41
"2987"	-0.24	0.84	0.4
"2988"	-0.24	0.85	0.39
"2989"	-0.24	0.86	0.38
"2990"	-0.24	0.87	0.37
"2991"	-0.24	0.88	0.36
"2992"	-0.24	0.89	0.35
"2993"	-0.24	0.9	0.34
"2994"	-0.24	0.91	0.33
"2995"	-0.24	0.92	0.32
"2996"	-0.24	0.93	0.31
"2997"	-0.24	0.94	0.3
"2998"	-0.24	0.95	0.29
"2999"	-0.24	0.96	0.28
"3000"	-0.24	0.97	0.27
"3001"	-0.24	0.98	0.26
"3002"	-0.24	0.99	0.25
"3003"	-0.24	1	0.24
"3004"	-0.23	0.23	1
"3005"	-0.23	0.24	0.99
"3006"	-0.23	0.25	0.98
"3007"	-0.23	0.26	0.97
"3008"	-0.23	0.27	0.96
"3009"	-0.23	0.28	0.95
"3010"	-0.23	0.29	0.94
"3011"	-0.23	0.3	0.93
"3012"	-0.23	0.31	0.92
"3013"	-0.23	0.32	0.91
"3014"	-0.23	0.33	0.9
"3015"	-0.23	0.34	0.89
"3016"	-0.23	0.35	0.88
"3017"	-0.23	0.36	0.87
"3018"	-0.23	0.37	0.86
"3019"	-0.23	0.38	0.85
"3020"	-0.23	0.39	0.84
"3021"	-0.23	0.4	0.83
"3022"	-0.23	0.41	0.82
"3023"	-0.23	0.42	0.81
"3024"	-0.23	0.43	0.8
"3025"	-0.23	0.44	0.79
"3026"	-0.23	0.45	0.78
"3027"	-0.23	0.46	0.77
"3028"	-0.23	0.47	0.76
"3029"	-0.23	0.48	0.75
"3030"	-0.23	0.49	0.74
"3031"	-0.23	0.5	0.73
"3032"	-0.23	0.51	0.72
"3033"	-0.23	0.52	0.71
"3034"	-0.23	0.53	0.7
"3035"	-0.23	0.54	0.69
"3036"	-0.23	0.55	0.68
"3037"	-0.23	0.56	0.67
"3038"	-0.23	0.57	0.66
"3039"	-0.23	0.58	0.65
"3040"	-0.23	0.59	0.64
"3041"	-0.23	0.6	0.63
"3042"	-0.23	0.61	0.62
"3043"	-0.23	0.62	0.61
"3044"	-0.23	0.63	0.6
"3045"	-0.23	0.64	0.59
"3046"	-0.23	0.65	0.58
"3047"	-0.23	0.66	0.57
"3048"	-0.23	0.67	0.56
"3049"	-0.23	0.68	0.55
"3050"	-0.23	0.69	0.54
"3051"	-0.23	0.7	0.53
"3052"	-0.23	0.71	0.52
"3053"	-0.23	0.72	0.51
"3054"	-0.23	0.73	0.5
"3055"	-0.23	0.74	0.49
"3056"	-0.23	0.75	0.48
"3057"	-0.23	0.76	0.47
"3058"	-0.23	0.77	0.46
"3059"	-0.23	0.78	0.45
"3060"	-0.23	0.79	0.44
"3061"	-0.23	0.8	0.43
"3062"	-0.23	0.81	0.42
"3063"	-0.23	0.82	0.41
"3064"	-0.23	0.83	0.4
"3065"	-0.23	0.84	0.39
"3066"	-0.23	0.85	0.38
"3067"	-0.23	0.86	0.37
"3068"	-0.23	0.87	0.36
"3069"	-0.23	0.88	0.35
"3070"	-0.23	0.89	0.34
"3071"	-0.23	0.9	0.33
"3072"	-0.23	0.91	0.32
"3073"	-0.23	0.92	0.31
"3074"	-0.23	0.93	0.3
"3075"	-0.23	0.94	0.29
"3076"	-0.23	0.95	0.28
"3077"	-0.23	0.96	0.27
"3078"	-0.23	0.97	0.26
"3079"	-0.23	0.98	0.25
"3080"	-0.23	0.99	0.24
"3081"	-0.23	1	0.23
"3082"	-0.22	0.22	1
"3083"	-0.22	0.23	0.99
"3084"	-0.22	0.24	0.98
"3085"	-0.22	0.25	0.97
"3086"	-0.22	0.26	0.96
"3087"	-0.22	0.27	0.95
"3088"	-0.22	0.28	0.94
"3089"	-0.22	0.29	0.93
"3090"	-0.22	0.3	0.92
"3091"	-0.22	0.31	0.91
"3092"	-0.22	0.32	0.9
"3093"	-0.22	0.33	0.89
"3094"	-0.22	0.34	0.88
"3095"	-0.22	0.35	0.87
"3096"	-0.22	0.36	0.86
"3097"	-0.22	0.37	0.85
"3098"	-0.22	0.38	0.84
"3099"	-0.22	0.39	0.83
"3100"	-0.22	0.4	0.82
"3101"	-0.22	0.41	0.81
"3102"	-0.22	0.42	0.8
"3103"	-0.22	0.43	0.79
"3104"	-0.22	0.44	0.78
"3105"	-0.22	0.45	0.77
"3106"	-0.22	0.46	0.76
"3107"	-0.22	0.47	0.75
"3108"	-0.22	0.48	0.74
"3109"	-0.22	0.49	0.73
"3110"	-0.22	0.5	0.72
"3111"	-0.22	0.51	0.71
"3112"	-0.22	0.52	0.7
"3113"	-0.22	0.53	0.69
"3114"	-0.22	0.54	0.68
"3115"	-0.22	0.55	0.67
"3116"	-0.22	0.56	0.66
"3117"	-0.22	0.57	0.65
"3118"	-0.22	0.58	0.64
"3119"	-0.22	0.59	0.63
"3120"	-0.22	0.6	0.62
"3121"	-0.22	0.61	0.61
"3122"	-0.22	0.62	0.6
"3123"	-0.22	0.63	0.59
"3124"	-0.22	0.64	0.58
"3125"	-0.22	0.65	0.57
"3126"	-0.22	0.66	0.56
"3127"	-0.22	0.67	0.55
"3128"	-0.22	0.68	0.54
"3129"	-0.22	0.69	0.53
"3130"	-0.22	0.7	0.52
"3131"	-0.22	0.71	0.51
"3132"	-0.22	0.72	0.5
"3133"	-0.22	0.73	0.49
"3134"	-0.22	0.74	0.48
"3135"	-0.22	0.75	0.47
"3136"	-0.22	0.76	0.46
"3137"	-0.22	0.77	0.45
"3138"	-0.22	0.78	0.44
"3139"	-0.22	0.79	0.43
"3140"	-0.22	0.8	0.42
"3141"	-0.22	0.81	0.41
"3142"	-0.22	0.82	0.4
"3143"	-0.22	0.83	0.39
"3144"	-0.22	0.84	0.38
"3145"	-0.22	0.85	0.37
"3146"	-0.22	0.86	0.36
"3147"	-0.22	0.87	0.35
"3148"	-0.22	0.88	0.34
"3149"	-0.22	0.89	0.33
"3150"	-0.22	0.9	0.32
"3151"	-0.22	0.91	0.31
"3152"	-0.22	0.92	0.3
"3153"	-0.22	0.93	0.29
"3154"	-0.22	0.94	0.28
"3155"	-0.22	0.95	0.27
"3156"	-0.22	0.96	0.26
"3157"	-0.22	0.97	0.25
"3158"	-0.22	0.98	0.24
"3159"	-0.22	0.99	0.23
"3160"	-0.22	1	0.22
"3161"	-0.21	0.21	1
"3162"	-0.21	0.22	0.99
"3163"	-0.21	0.23	0.98
"3164"	-0.21	0.24	0.97
"3165"	-0.21	0.25	0.96
"3166"	-0.21	0.26	0.95
"3167"	-0.21	0.27	0.94
"3168"	-0.21	0.28	0.93
"3169"	-0.21	0.29	0.92
"3170"	-0.21	0.3	0.91
"3171"	-0.21	0.31	0.9
"3172"	-0.21	0.32	0.89
"3173"	-0.21	0.33	0.88
"3174"	-0.21	0.34	0.87
"3175"	-0.21	0.35	0.86
"3176"	-0.21	0.36	0.85
"3177"	-0.21	0.37	0.84
"3178"	-0.21	0.38	0.83
"3179"	-0.21	0.39	0.82
"3180"	-0.21	0.4	0.81
"3181"	-0.21	0.41	0.8
"3182"	-0.21	0.42	0.79
"3183"	-0.21	0.43	0.78
"3184"	-0.21	0.44	0.77
"3185"	-0.21	0.45	0.76
"3186"	-0.21	0.46	0.75
"3187"	-0.21	0.47	0.74
"3188"	-0.21	0.48	0.73
"3189"	-0.21	0.49	0.72
"3190"	-0.21	0.5	0.71
"3191"	-0.21	0.51	0.7
"3192"	-0.21	0.52	0.69
"3193"	-0.21	0.53	0.68
"3194"	-0.21	0.54	0.67
"3195"	-0.21	0.55	0.66
"3196"	-0.21	0.56	0.65
"3197"	-0.21	0.57	0.64
"3198"	-0.21	0.58	0.63
"3199"	-0.21	0.59	0.62
"3200"	-0.21	0.6	0.61
"3201"	-0.21	0.61	0.6
"3202"	-0.21	0.62	0.59
"3203"	-0.21	0.63	0.58
"3204"	-0.21	0.64	0.57
"3205"	-0.21	0.65	0.56
"3206"	-0.21	0.66	0.55
"3207"	-0.21	0.67	0.54
"3208"	-0.21	0.68	0.53
"3209"	-0.21	0.69	0.52
"3210"	-0.21	0.7	0.51
"3211"	-0.21	0.71	0.5
"3212"	-0.21	0.72	0.49
"3213"	-0.21	0.73	0.48
"3214"	-0.21	0.74	0.47
"3215"	-0.21	0.75	0.46
"3216"	-0.21	0.76	0.45
"3217"	-0.21	0.77	0.44
"3218"	-0.21	0.78	0.43
"3219"	-0.21	0.79	0.42
"3220"	-0.21	0.8	0.41
"3221"	-0.21	0.81	0.4
"3222"	-0.21	0.82	0.39
"3223"	-0.21	0.83	0.38
"3224"	-0.21	0.84	0.37
"3225"	-0.21	0.85	0.36
"3226"	-0.21	0.86	0.35
"3227"	-0.21	0.87	0.34
"3228"	-0.21	0.88	0.33
"3229"	-0.21	0.89	0.32
"3230"	-0.21	0.9	0.31
"3231"	-0.21	0.91	0.3
"3232"	-0.21	0.92	0.29
"3233"	-0.21	0.93	0.28
"3234"	-0.21	0.94	0.27
"3235"	-0.21	0.95	0.26
"3236"	-0.21	0.96	0.25
"3237"	-0.21	0.97	0.24
"3238"	-0.21	0.98	0.23
"3239"	-0.21	0.99	0.22
"3240"	-0.21	1	0.21
"3241"	-0.2	0.2	1
"3242"	-0.2	0.21	0.99
"3243"	-0.2	0.22	0.98
"3244"	-0.2	0.23	0.97
"3245"	-0.2	0.24	0.96
"3246"	-0.2	0.25	0.95
"3247"	-0.2	0.26	0.94
"3248"	-0.2	0.27	0.93
"3249"	-0.2	0.28	0.92
"3250"	-0.2	0.29	0.91
"3251"	-0.2	0.3	0.9
"3252"	-0.2	0.31	0.89
"3253"	-0.2	0.32	0.88
"3254"	-0.2	0.33	0.87
"3255"	-0.2	0.34	0.86
"3256"	-0.2	0.35	0.85
"3257"	-0.2	0.36	0.84
"3258"	-0.2	0.37	0.83
"3259"	-0.2	0.38	0.82
"3260"	-0.2	0.39	0.81
"3261"	-0.2	0.4	0.8
"3262"	-0.2	0.41	0.79
"3263"	-0.2	0.42	0.78
"3264"	-0.2	0.43	0.77
"3265"	-0.2	0.44	0.76
"3266"	-0.2	0.45	0.75
"3267"	-0.2	0.46	0.74
"3268"	-0.2	0.47	0.73
"3269"	-0.2	0.48	0.72
"3270"	-0.2	0.49	0.71
"3271"	-0.2	0.5	0.7
"3272"	-0.2	0.51	0.69
"3273"	-0.2	0.52	0.68
"3274"	-0.2	0.53	0.67
"3275"	-0.2	0.54	0.66
"3276"	-0.2	0.55	0.65
"3277"	-0.2	0.56	0.64
"3278"	-0.2	0.57	0.63
"3279"	-0.2	0.58	0.62
"3280"	-0.2	0.59	0.61
"3281"	-0.2	0.6	0.6
"3282"	-0.2	0.61	0.59
"3283"	-0.2	0.62	0.58
"3284"	-0.2	0.63	0.57
"3285"	-0.2	0.64	0.56
"3286"	-0.2	0.65	0.55
"3287"	-0.2	0.66	0.54
"3288"	-0.2	0.67	0.53
"3289"	-0.2	0.68	0.52
"3290"	-0.2	0.69	0.51
"3291"	-0.2	0.7	0.5
"3292"	-0.2	0.71	0.49
"3293"	-0.2	0.72	0.48
"3294"	-0.2	0.73	0.47
"3295"	-0.2	0.74	0.46
"3296"	-0.2	0.75	0.45
"3297"	-0.2	0.76	0.44
"3298"	-0.2	0.77	0.43
"3299"	-0.2	0.78	0.42
"3300"	-0.2	0.79	0.41
"3301"	-0.2	0.8	0.4
"3302"	-0.2	0.81	0.39
"3303"	-0.2	0.82	0.38
"3304"	-0.2	0.83	0.37
"3305"	-0.2	0.84	0.36
"3306"	-0.2	0.85	0.35
"3307"	-0.2	0.86	0.34
"3308"	-0.2	0.87	0.33
"3309"	-0.2	0.88	0.32
"3310"	-0.2	0.89	0.31
"3311"	-0.2	0.9	0.3
"3312"	-0.2	0.91	0.29
"3313"	-0.2	0.92	0.28
"3314"	-0.2	0.93	0.27
"3315"	-0.2	0.94	0.26
"3316"	-0.2	0.95	0.25
"3317"	-0.2	0.96	0.24
"3318"	-0.2	0.97	0.23
"3319"	-0.2	0.98	0.22
"3320"	-0.2	0.99	0.21
"3321"	-0.2	1	0.2
"3322"	-0.19	0.19	1
"3323"	-0.19	0.2	0.99
"3324"	-0.19	0.21	0.98
"3325"	-0.19	0.22	0.97
"3326"	-0.19	0.23	0.96
"3327"	-0.19	0.24	0.95
"3328"	-0.19	0.25	0.94
"3329"	-0.19	0.26	0.93
"3330"	-0.19	0.27	0.92
"3331"	-0.19	0.28	0.91
"3332"	-0.19	0.29	0.9
"3333"	-0.19	0.3	0.89
"3334"	-0.19	0.31	0.88
"3335"	-0.19	0.32	0.87
"3336"	-0.19	0.33	0.86
"3337"	-0.19	0.34	0.85
"3338"	-0.19	0.35	0.84
"3339"	-0.19	0.36	0.83
"3340"	-0.19	0.37	0.82
"3341"	-0.19	0.38	0.81
"3342"	-0.19	0.39	0.8
"3343"	-0.19	0.4	0.79
"3344"	-0.19	0.41	0.78
"3345"	-0.19	0.42	0.77
"3346"	-0.19	0.43	0.76
"3347"	-0.19	0.44	0.75
"3348"	-0.19	0.45	0.74
"3349"	-0.19	0.46	0.73
"3350"	-0.19	0.47	0.72
"3351"	-0.19	0.48	0.71
"3352"	-0.19	0.49	0.7
"3353"	-0.19	0.5	0.69
"3354"	-0.19	0.51	0.68
"3355"	-0.19	0.52	0.67
"3356"	-0.19	0.53	0.66
"3357"	-0.19	0.54	0.65
"3358"	-0.19	0.55	0.64
"3359"	-0.19	0.56	0.63
"3360"	-0.19	0.57	0.62
"3361"	-0.19	0.58	0.61
"3362"	-0.19	0.59	0.6
"3363"	-0.19	0.6	0.59
"3364"	-0.19	0.61	0.58
"3365"	-0.19	0.62	0.57
"3366"	-0.19	0.63	0.56
"3367"	-0.19	0.64	0.55
"3368"	-0.19	0.65	0.54
"3369"	-0.19	0.66	0.53
"3370"	-0.19	0.67	0.52
"3371"	-0.19	0.68	0.51
"3372"	-0.19	0.69	0.5
"3373"	-0.19	0.7	0.49
"3374"	-0.19	0.71	0.48
"3375"	-0.19	0.72	0.47
"3376"	-0.19	0.73	0.46
"3377"	-0.19	0.74	0.45
"3378"	-0.19	0.75	0.44
"3379"	-0.19	0.76	0.43
"3380"	-0.19	0.77	0.42
"3381"	-0.19	0.78	0.41
"3382"	-0.19	0.79	0.4
"3383"	-0.19	0.8	0.39
"3384"	-0.19	0.81	0.38
"3385"	-0.19	0.82	0.37
"3386"	-0.19	0.83	0.36
"3387"	-0.19	0.84	0.35
"3388"	-0.19	0.85	0.34
"3389"	-0.19	0.86	0.33
"3390"	-0.19	0.87	0.32
"3391"	-0.19	0.88	0.31
"3392"	-0.19	0.89	0.3
"3393"	-0.19	0.9	0.29
"3394"	-0.19	0.91	0.28
"3395"	-0.19	0.92	0.27
"3396"	-0.19	0.93	0.26
"3397"	-0.19	0.94	0.25
"3398"	-0.19	0.95	0.24
"3399"	-0.19	0.96	0.23
"3400"	-0.19	0.97	0.22
"3401"	-0.19	0.98	0.21
"3402"	-0.19	0.99	0.2
"3403"	-0.19	1	0.19
"3404"	-0.18	0.18	1
"3405"	-0.18	0.19	0.99
"3406"	-0.18	0.2	0.98
"3407"	-0.18	0.21	0.97
"3408"	-0.18	0.22	0.96
"3409"	-0.18	0.23	0.95
"3410"	-0.18	0.24	0.94
"3411"	-0.18	0.25	0.93
"3412"	-0.18	0.26	0.92
"3413"	-0.18	0.27	0.91
"3414"	-0.18	0.28	0.9
"3415"	-0.18	0.29	0.89
"3416"	-0.18	0.3	0.88
"3417"	-0.18	0.31	0.87
"3418"	-0.18	0.32	0.86
"3419"	-0.18	0.33	0.85
"3420"	-0.18	0.34	0.84
"3421"	-0.18	0.35	0.83
"3422"	-0.18	0.36	0.82
"3423"	-0.18	0.37	0.81
"3424"	-0.18	0.38	0.8
"3425"	-0.18	0.39	0.79
"3426"	-0.18	0.4	0.78
"3427"	-0.18	0.41	0.77
"3428"	-0.18	0.42	0.76
"3429"	-0.18	0.43	0.75
"3430"	-0.18	0.44	0.74
"3431"	-0.18	0.45	0.73
"3432"	-0.18	0.46	0.72
"3433"	-0.18	0.47	0.71
"3434"	-0.18	0.48	0.7
"3435"	-0.18	0.49	0.69
"3436"	-0.18	0.5	0.68
"3437"	-0.18	0.51	0.67
"3438"	-0.18	0.52	0.66
"3439"	-0.18	0.53	0.65
"3440"	-0.18	0.54	0.64
"3441"	-0.18	0.55	0.63
"3442"	-0.18	0.56	0.62
"3443"	-0.18	0.57	0.61
"3444"	-0.18	0.58	0.6
"3445"	-0.18	0.59	0.59
"3446"	-0.18	0.6	0.58
"3447"	-0.18	0.61	0.57
"3448"	-0.18	0.62	0.56
"3449"	-0.18	0.63	0.55
"3450"	-0.18	0.64	0.54
"3451"	-0.18	0.65	0.53
"3452"	-0.18	0.66	0.52
"3453"	-0.18	0.67	0.51
"3454"	-0.18	0.68	0.5
"3455"	-0.18	0.69	0.49
"3456"	-0.18	0.7	0.48
"3457"	-0.18	0.71	0.47
"3458"	-0.18	0.72	0.46
"3459"	-0.18	0.73	0.45
"3460"	-0.18	0.74	0.44
"3461"	-0.18	0.75	0.43
"3462"	-0.18	0.76	0.42
"3463"	-0.18	0.77	0.41
"3464"	-0.18	0.78	0.4
"3465"	-0.18	0.79	0.39
"3466"	-0.18	0.8	0.38
"3467"	-0.18	0.81	0.37
"3468"	-0.18	0.82	0.36
"3469"	-0.18	0.83	0.35
"3470"	-0.18	0.84	0.34
"3471"	-0.18	0.85	0.33
"3472"	-0.18	0.86	0.32
"3473"	-0.18	0.87	0.31
"3474"	-0.18	0.88	0.3
"3475"	-0.18	0.89	0.29
"3476"	-0.18	0.9	0.28
"3477"	-0.18	0.91	0.27
"3478"	-0.18	0.92	0.26
"3479"	-0.18	0.93	0.25
"3480"	-0.18	0.94	0.24
"3481"	-0.18	0.95	0.23
"3482"	-0.18	0.96	0.22
"3483"	-0.18	0.97	0.21
"3484"	-0.18	0.98	0.2
"3485"	-0.18	0.99	0.19
"3486"	-0.18	1	0.18
"3487"	-0.17	0.17	1
"3488"	-0.17	0.18	0.99
"3489"	-0.17	0.19	0.98
"3490"	-0.17	0.2	0.97
"3491"	-0.17	0.21	0.96
"3492"	-0.17	0.22	0.95
"3493"	-0.17	0.23	0.94
"3494"	-0.17	0.24	0.93
"3495"	-0.17	0.25	0.92
"3496"	-0.17	0.26	0.91
"3497"	-0.17	0.27	0.9
"3498"	-0.17	0.28	0.89
"3499"	-0.17	0.29	0.88
"3500"	-0.17	0.3	0.87
"3501"	-0.17	0.31	0.86
"3502"	-0.17	0.32	0.85
"3503"	-0.17	0.33	0.84
"3504"	-0.17	0.34	0.83
"3505"	-0.17	0.35	0.82
"3506"	-0.17	0.36	0.81
"3507"	-0.17	0.37	0.8
"3508"	-0.17	0.38	0.79
"3509"	-0.17	0.39	0.78
"3510"	-0.17	0.4	0.77
"3511"	-0.17	0.41	0.76
"3512"	-0.17	0.42	0.75
"3513"	-0.17	0.43	0.74
"3514"	-0.17	0.44	0.73
"3515"	-0.17	0.45	0.72
"3516"	-0.17	0.46	0.71
"3517"	-0.17	0.47	0.7
"3518"	-0.17	0.48	0.69
"3519"	-0.17	0.49	0.68
"3520"	-0.17	0.5	0.67
"3521"	-0.17	0.51	0.66
"3522"	-0.17	0.52	0.65
"3523"	-0.17	0.53	0.64
"3524"	-0.17	0.54	0.63
"3525"	-0.17	0.55	0.62
"3526"	-0.17	0.56	0.61
"3527"	-0.17	0.57	0.6
"3528"	-0.17	0.58	0.59
"3529"	-0.17	0.59	0.58
"3530"	-0.17	0.6	0.57
"3531"	-0.17	0.61	0.56
"3532"	-0.17	0.62	0.55
"3533"	-0.17	0.63	0.54
"3534"	-0.17	0.64	0.53
"3535"	-0.17	0.65	0.52
"3536"	-0.17	0.66	0.51
"3537"	-0.17	0.67	0.5
"3538"	-0.17	0.68	0.49
"3539"	-0.17	0.69	0.48
"3540"	-0.17	0.7	0.47
"3541"	-0.17	0.71	0.46
"3542"	-0.17	0.72	0.45
"3543"	-0.17	0.73	0.44
"3544"	-0.17	0.74	0.43
"3545"	-0.17	0.75	0.42
"3546"	-0.17	0.76	0.41
"3547"	-0.17	0.77	0.4
"3548"	-0.17	0.78	0.39
"3549"	-0.17	0.79	0.38
"3550"	-0.17	0.8	0.37
"3551"	-0.17	0.81	0.36
"3552"	-0.17	0.82	0.35
"3553"	-0.17	0.83	0.34
"3554"	-0.17	0.84	0.33
"3555"	-0.17	0.85	0.32
"3556"	-0.17	0.86	0.31
"3557"	-0.17	0.87	0.3
"3558"	-0.17	0.88	0.29
"3559"	-0.17	0.89	0.28
"3560"	-0.17	0.9	0.27
"3561"	-0.17	0.91	0.26
"3562"	-0.17	0.92	0.25
"3563"	-0.17	0.93	0.24
"3564"	-0.17	0.94	0.23
"3565"	-0.17	0.95	0.22
"3566"	-0.17	0.96	0.21
"3567"	-0.17	0.97	0.2
"3568"	-0.17	0.98	0.19
"3569"	-0.17	0.99	0.18
"3570"	-0.17	1	0.17
"3571"	-0.16	0.16	1
"3572"	-0.16	0.17	0.99
"3573"	-0.16	0.18	0.98
"3574"	-0.16	0.19	0.97
"3575"	-0.16	0.2	0.96
"3576"	-0.16	0.21	0.95
"3577"	-0.16	0.22	0.94
"3578"	-0.16	0.23	0.93
"3579"	-0.16	0.24	0.92
"3580"	-0.16	0.25	0.91
"3581"	-0.16	0.26	0.9
"3582"	-0.16	0.27	0.89
"3583"	-0.16	0.28	0.88
"3584"	-0.16	0.29	0.87
"3585"	-0.16	0.3	0.86
"3586"	-0.16	0.31	0.85
"3587"	-0.16	0.32	0.84
"3588"	-0.16	0.33	0.83
"3589"	-0.16	0.34	0.82
"3590"	-0.16	0.35	0.81
"3591"	-0.16	0.36	0.8
"3592"	-0.16	0.37	0.79
"3593"	-0.16	0.38	0.78
"3594"	-0.16	0.39	0.77
"3595"	-0.16	0.4	0.76
"3596"	-0.16	0.41	0.75
"3597"	-0.16	0.42	0.74
"3598"	-0.16	0.43	0.73
"3599"	-0.16	0.44	0.72
"3600"	-0.16	0.45	0.71
"3601"	-0.16	0.46	0.7
"3602"	-0.16	0.47	0.69
"3603"	-0.16	0.48	0.68
"3604"	-0.16	0.49	0.67
"3605"	-0.16	0.5	0.66
"3606"	-0.16	0.51	0.65
"3607"	-0.16	0.52	0.64
"3608"	-0.16	0.53	0.63
"3609"	-0.16	0.54	0.62
"3610"	-0.16	0.55	0.61
"3611"	-0.16	0.56	0.6
"3612"	-0.16	0.57	0.59
"3613"	-0.16	0.58	0.58
"3614"	-0.16	0.59	0.57
"3615"	-0.16	0.6	0.56
"3616"	-0.16	0.61	0.55
"3617"	-0.16	0.62	0.54
"3618"	-0.16	0.63	0.53
"3619"	-0.16	0.64	0.52
"3620"	-0.16	0.65	0.51
"3621"	-0.16	0.66	0.5
"3622"	-0.16	0.67	0.49
"3623"	-0.16	0.68	0.48
"3624"	-0.16	0.69	0.47
"3625"	-0.16	0.7	0.46
"3626"	-0.16	0.71	0.45
"3627"	-0.16	0.72	0.44
"3628"	-0.16	0.73	0.43
"3629"	-0.16	0.74	0.42
"3630"	-0.16	0.75	0.41
"3631"	-0.16	0.76	0.4
"3632"	-0.16	0.77	0.39
"3633"	-0.16	0.78	0.38
"3634"	-0.16	0.79	0.37
"3635"	-0.16	0.8	0.36
"3636"	-0.16	0.81	0.35
"3637"	-0.16	0.82	0.34
"3638"	-0.16	0.83	0.33
"3639"	-0.16	0.84	0.32
"3640"	-0.16	0.85	0.31
"3641"	-0.16	0.86	0.3
"3642"	-0.16	0.87	0.29
"3643"	-0.16	0.88	0.28
"3644"	-0.16	0.89	0.27
"3645"	-0.16	0.9	0.26
"3646"	-0.16	0.91	0.25
"3647"	-0.16	0.92	0.24
"3648"	-0.16	0.93	0.23
"3649"	-0.16	0.94	0.22
"3650"	-0.16	0.95	0.21
"3651"	-0.16	0.96	0.2
"3652"	-0.16	0.97	0.19
"3653"	-0.16	0.98	0.18
"3654"	-0.16	0.99	0.17
"3655"	-0.16	1	0.16
"3656"	-0.15	0.15	1
"3657"	-0.15	0.16	0.99
"3658"	-0.15	0.17	0.98
"3659"	-0.15	0.18	0.97
"3660"	-0.15	0.19	0.96
"3661"	-0.15	0.2	0.95
"3662"	-0.15	0.21	0.94
"3663"	-0.15	0.22	0.93
"3664"	-0.15	0.23	0.92
"3665"	-0.15	0.24	0.91
"3666"	-0.15	0.25	0.9
"3667"	-0.15	0.26	0.89
"3668"	-0.15	0.27	0.88
"3669"	-0.15	0.28	0.87
"3670"	-0.15	0.29	0.86
"3671"	-0.15	0.3	0.85
"3672"	-0.15	0.31	0.84
"3673"	-0.15	0.32	0.83
"3674"	-0.15	0.33	0.82
"3675"	-0.15	0.34	0.81
"3676"	-0.15	0.35	0.8
"3677"	-0.15	0.36	0.79
"3678"	-0.15	0.37	0.78
"3679"	-0.15	0.38	0.77
"3680"	-0.15	0.39	0.76
"3681"	-0.15	0.4	0.75
"3682"	-0.15	0.41	0.74
"3683"	-0.15	0.42	0.73
"3684"	-0.15	0.43	0.72
"3685"	-0.15	0.44	0.71
"3686"	-0.15	0.45	0.7
"3687"	-0.15	0.46	0.69
"3688"	-0.15	0.47	0.68
"3689"	-0.15	0.48	0.67
"3690"	-0.15	0.49	0.66
"3691"	-0.15	0.5	0.65
"3692"	-0.15	0.51	0.64
"3693"	-0.15	0.52	0.63
"3694"	-0.15	0.53	0.62
"3695"	-0.15	0.54	0.61
"3696"	-0.15	0.55	0.6
"3697"	-0.15	0.56	0.59
"3698"	-0.15	0.57	0.58
"3699"	-0.15	0.58	0.57
"3700"	-0.15	0.59	0.56
"3701"	-0.15	0.6	0.55
"3702"	-0.15	0.61	0.54
"3703"	-0.15	0.62	0.53
"3704"	-0.15	0.63	0.52
"3705"	-0.15	0.64	0.51
"3706"	-0.15	0.65	0.5
"3707"	-0.15	0.66	0.49
"3708"	-0.15	0.67	0.48
"3709"	-0.15	0.68	0.47
"3710"	-0.15	0.69	0.46
"3711"	-0.15	0.7	0.45
"3712"	-0.15	0.71	0.44
"3713"	-0.15	0.72	0.43
"3714"	-0.15	0.73	0.42
"3715"	-0.15	0.74	0.41
"3716"	-0.15	0.75	0.4
"3717"	-0.15	0.76	0.39
"3718"	-0.15	0.77	0.38
"3719"	-0.15	0.78	0.37
"3720"	-0.15	0.79	0.36
"3721"	-0.15	0.8	0.35
"3722"	-0.15	0.81	0.34
"3723"	-0.15	0.82	0.33
"3724"	-0.15	0.83	0.32
"3725"	-0.15	0.84	0.31
"3726"	-0.15	0.85	0.3
"3727"	-0.15	0.86	0.29
"3728"	-0.15	0.87	0.28
"3729"	-0.15	0.88	0.27
"3730"	-0.15	0.89	0.26
"3731"	-0.15	0.9	0.25
"3732"	-0.15	0.91	0.24
"3733"	-0.15	0.92	0.23
"3734"	-0.15	0.93	0.22
"3735"	-0.15	0.94	0.21
"3736"	-0.15	0.95	0.2
"3737"	-0.15	0.96	0.19
"3738"	-0.15	0.97	0.18
"3739"	-0.15	0.98	0.17
"3740"	-0.15	0.99	0.16
"3741"	-0.15	1	0.15
"3742"	-0.14	0.14	1
"3743"	-0.14	0.15	0.99
"3744"	-0.14	0.16	0.98
"3745"	-0.14	0.17	0.97
"3746"	-0.14	0.18	0.96
"3747"	-0.14	0.19	0.95
"3748"	-0.14	0.2	0.94
"3749"	-0.14	0.21	0.93
"3750"	-0.14	0.22	0.92
"3751"	-0.14	0.23	0.91
"3752"	-0.14	0.24	0.9
"3753"	-0.14	0.25	0.89
"3754"	-0.14	0.26	0.88
"3755"	-0.14	0.27	0.87
"3756"	-0.14	0.28	0.86
"3757"	-0.14	0.29	0.85
"3758"	-0.14	0.3	0.84
"3759"	-0.14	0.31	0.83
"3760"	-0.14	0.32	0.82
"3761"	-0.14	0.33	0.81
"3762"	-0.14	0.34	0.8
"3763"	-0.14	0.35	0.79
"3764"	-0.14	0.36	0.78
"3765"	-0.14	0.37	0.77
"3766"	-0.14	0.38	0.76
"3767"	-0.14	0.39	0.75
"3768"	-0.14	0.4	0.74
"3769"	-0.14	0.41	0.73
"3770"	-0.14	0.42	0.72
"3771"	-0.14	0.43	0.71
"3772"	-0.14	0.44	0.7
"3773"	-0.14	0.45	0.69
"3774"	-0.14	0.46	0.68
"3775"	-0.14	0.47	0.67
"3776"	-0.14	0.48	0.66
"3777"	-0.14	0.49	0.65
"3778"	-0.14	0.5	0.64
"3779"	-0.14	0.51	0.63
"3780"	-0.14	0.52	0.62
"3781"	-0.14	0.53	0.61
"3782"	-0.14	0.54	0.6
"3783"	-0.14	0.55	0.59
"3784"	-0.14	0.56	0.58
"3785"	-0.14	0.57	0.57
"3786"	-0.14	0.58	0.56
"3787"	-0.14	0.59	0.55
"3788"	-0.14	0.6	0.54
"3789"	-0.14	0.61	0.53
"3790"	-0.14	0.62	0.52
"3791"	-0.14	0.63	0.51
"3792"	-0.14	0.64	0.5
"3793"	-0.14	0.65	0.49
"3794"	-0.14	0.66	0.48
"3795"	-0.14	0.67	0.47
"3796"	-0.14	0.68	0.46
"3797"	-0.14	0.69	0.45
"3798"	-0.14	0.7	0.44
"3799"	-0.14	0.71	0.43
"3800"	-0.14	0.72	0.42
"3801"	-0.14	0.73	0.41
"3802"	-0.14	0.74	0.4
"3803"	-0.14	0.75	0.39
"3804"	-0.14	0.76	0.38
"3805"	-0.14	0.77	0.37
"3806"	-0.14	0.78	0.36
"3807"	-0.14	0.79	0.35
"3808"	-0.14	0.8	0.34
"3809"	-0.14	0.81	0.33
"3810"	-0.14	0.82	0.32
"3811"	-0.14	0.83	0.31
"3812"	-0.14	0.84	0.3
"3813"	-0.14	0.85	0.29
"3814"	-0.14	0.86	0.28
"3815"	-0.14	0.87	0.27
"3816"	-0.14	0.88	0.26
"3817"	-0.14	0.89	0.25
"3818"	-0.14	0.9	0.24
"3819"	-0.14	0.91	0.23
"3820"	-0.14	0.92	0.22
"3821"	-0.14	0.93	0.21
"3822"	-0.14	0.94	0.2
"3823"	-0.14	0.95	0.19
"3824"	-0.14	0.96	0.18
"3825"	-0.14	0.97	0.17
"3826"	-0.14	0.98	0.16
"3827"	-0.14	0.99	0.15
"3828"	-0.14	1	0.14
"3829"	-0.13	0.13	1
"3830"	-0.13	0.14	0.99
"3831"	-0.13	0.15	0.98
"3832"	-0.13	0.16	0.97
"3833"	-0.13	0.17	0.96
"3834"	-0.13	0.18	0.95
"3835"	-0.13	0.19	0.94
"3836"	-0.13	0.2	0.93
"3837"	-0.13	0.21	0.92
"3838"	-0.13	0.22	0.91
"3839"	-0.13	0.23	0.9
"3840"	-0.13	0.24	0.89
"3841"	-0.13	0.25	0.88
"3842"	-0.13	0.26	0.87
"3843"	-0.13	0.27	0.86
"3844"	-0.13	0.28	0.85
"3845"	-0.13	0.29	0.84
"3846"	-0.13	0.3	0.83
"3847"	-0.13	0.31	0.82
"3848"	-0.13	0.32	0.81
"3849"	-0.13	0.33	0.8
"3850"	-0.13	0.34	0.79
"3851"	-0.13	0.35	0.78
"3852"	-0.13	0.36	0.77
"3853"	-0.13	0.37	0.76
"3854"	-0.13	0.38	0.75
"3855"	-0.13	0.39	0.74
"3856"	-0.13	0.4	0.73
"3857"	-0.13	0.41	0.72
"3858"	-0.13	0.42	0.71
"3859"	-0.13	0.43	0.7
"3860"	-0.13	0.44	0.69
"3861"	-0.13	0.45	0.68
"3862"	-0.13	0.46	0.67
"3863"	-0.13	0.47	0.66
"3864"	-0.13	0.48	0.65
"3865"	-0.13	0.49	0.64
"3866"	-0.13	0.5	0.63
"3867"	-0.13	0.51	0.62
"3868"	-0.13	0.52	0.61
"3869"	-0.13	0.53	0.6
"3870"	-0.13	0.54	0.59
"3871"	-0.13	0.55	0.58
"3872"	-0.13	0.56	0.57
"3873"	-0.13	0.57	0.56
"3874"	-0.13	0.58	0.55
"3875"	-0.13	0.59	0.54
"3876"	-0.13	0.6	0.53
"3877"	-0.13	0.61	0.52
"3878"	-0.13	0.62	0.51
"3879"	-0.13	0.63	0.5
"3880"	-0.13	0.64	0.49
"3881"	-0.13	0.65	0.48
"3882"	-0.13	0.66	0.47
"3883"	-0.13	0.67	0.46
"3884"	-0.13	0.68	0.45
"3885"	-0.13	0.69	0.44
"3886"	-0.13	0.7	0.43
"3887"	-0.13	0.71	0.42
"3888"	-0.13	0.72	0.41
"3889"	-0.13	0.73	0.4
"3890"	-0.13	0.74	0.39
"3891"	-0.13	0.75	0.38
"3892"	-0.13	0.76	0.37
"3893"	-0.13	0.77	0.36
"3894"	-0.13	0.78	0.35
"3895"	-0.13	0.79	0.34
"3896"	-0.13	0.8	0.33
"3897"	-0.13	0.81	0.32
"3898"	-0.13	0.82	0.31
"3899"	-0.13	0.83	0.3
"3900"	-0.13	0.84	0.29
"3901"	-0.13	0.85	0.28
"3902"	-0.13	0.86	0.27
"3903"	-0.13	0.87	0.26
"3904"	-0.13	0.88	0.25
"3905"	-0.13	0.89	0.24
"3906"	-0.13	0.9	0.23
"3907"	-0.13	0.91	0.22
"3908"	-0.13	0.92	0.21
"3909"	-0.13	0.93	0.2
"3910"	-0.13	0.94	0.19
"3911"	-0.13	0.95	0.18
"3912"	-0.13	0.96	0.17
"3913"	-0.13	0.97	0.16
"3914"	-0.13	0.98	0.15
"3915"	-0.13	0.99	0.14
"3916"	-0.13	1	0.13
"3917"	-0.12	0.12	1
"3918"	-0.12	0.13	0.99
"3919"	-0.12	0.14	0.98
"3920"	-0.12	0.15	0.97
"3921"	-0.12	0.16	0.96
"3922"	-0.12	0.17	0.95
"3923"	-0.12	0.18	0.94
"3924"	-0.12	0.19	0.93
"3925"	-0.12	0.2	0.92
"3926"	-0.12	0.21	0.91
"3927"	-0.12	0.22	0.9
"3928"	-0.12	0.23	0.89
"3929"	-0.12	0.24	0.88
"3930"	-0.12	0.25	0.87
"3931"	-0.12	0.26	0.86
"3932"	-0.12	0.27	0.85
"3933"	-0.12	0.28	0.84
"3934"	-0.12	0.29	0.83
"3935"	-0.12	0.3	0.82
"3936"	-0.12	0.31	0.81
"3937"	-0.12	0.32	0.8
"3938"	-0.12	0.33	0.79
"3939"	-0.12	0.34	0.78
"3940"	-0.12	0.35	0.77
"3941"	-0.12	0.36	0.76
"3942"	-0.12	0.37	0.75
"3943"	-0.12	0.38	0.74
"3944"	-0.12	0.39	0.73
"3945"	-0.12	0.4	0.72
"3946"	-0.12	0.41	0.71
"3947"	-0.12	0.42	0.7
"3948"	-0.12	0.43	0.69
"3949"	-0.12	0.44	0.68
"3950"	-0.12	0.45	0.67
"3951"	-0.12	0.46	0.66
"3952"	-0.12	0.47	0.65
"3953"	-0.12	0.48	0.64
"3954"	-0.12	0.49	0.63
"3955"	-0.12	0.5	0.62
"3956"	-0.12	0.51	0.61
"3957"	-0.12	0.52	0.6
"3958"	-0.12	0.53	0.59
"3959"	-0.12	0.54	0.58
"3960"	-0.12	0.55	0.57
"3961"	-0.12	0.56	0.56
"3962"	-0.12	0.57	0.55
"3963"	-0.12	0.58	0.54
"3964"	-0.12	0.59	0.53
"3965"	-0.12	0.6	0.52
"3966"	-0.12	0.61	0.51
"3967"	-0.12	0.62	0.5
"3968"	-0.12	0.63	0.49
"3969"	-0.12	0.64	0.48
"3970"	-0.12	0.65	0.47
"3971"	-0.12	0.66	0.46
"3972"	-0.12	0.67	0.45
"3973"	-0.12	0.68	0.44
"3974"	-0.12	0.69	0.43
"3975"	-0.12	0.7	0.42
"3976"	-0.12	0.71	0.41
"3977"	-0.12	0.72	0.4
"3978"	-0.12	0.73	0.39
"3979"	-0.12	0.74	0.38
"3980"	-0.12	0.75	0.37
"3981"	-0.12	0.76	0.36
"3982"	-0.12	0.77	0.35
"3983"	-0.12	0.78	0.34
"3984"	-0.12	0.79	0.33
"3985"	-0.12	0.8	0.32
"3986"	-0.12	0.81	0.31
"3987"	-0.12	0.82	0.3
"3988"	-0.12	0.83	0.29
"3989"	-0.12	0.84	0.28
"3990"	-0.12	0.85	0.27
"3991"	-0.12	0.86	0.26
"3992"	-0.12	0.87	0.25
"3993"	-0.12	0.88	0.24
"3994"	-0.12	0.89	0.23
"3995"	-0.12	0.9	0.22
"3996"	-0.12	0.91	0.21
"3997"	-0.12	0.92	0.2
"3998"	-0.12	0.93	0.19
"3999"	-0.12	0.94	0.18
"4000"	-0.12	0.95	0.17
"4001"	-0.12	0.96	0.16
"4002"	-0.12	0.97	0.15
"4003"	-0.12	0.98	0.14
"4004"	-0.12	0.99	0.13
"4005"	-0.12	1	0.12
"4006"	-0.11	0.11	1
"4007"	-0.11	0.12	0.99
"4008"	-0.11	0.13	0.98
"4009"	-0.11	0.14	0.97
"4010"	-0.11	0.15	0.96
"4011"	-0.11	0.16	0.95
"4012"	-0.11	0.17	0.94
"4013"	-0.11	0.18	0.93
"4014"	-0.11	0.19	0.92
"4015"	-0.11	0.2	0.91
"4016"	-0.11	0.21	0.9
"4017"	-0.11	0.22	0.89
"4018"	-0.11	0.23	0.88
"4019"	-0.11	0.24	0.87
"4020"	-0.11	0.25	0.86
"4021"	-0.11	0.26	0.85
"4022"	-0.11	0.27	0.84
"4023"	-0.11	0.28	0.83
"4024"	-0.11	0.29	0.82
"4025"	-0.11	0.3	0.81
"4026"	-0.11	0.31	0.8
"4027"	-0.11	0.32	0.79
"4028"	-0.11	0.33	0.78
"4029"	-0.11	0.34	0.77
"4030"	-0.11	0.35	0.76
"4031"	-0.11	0.36	0.75
"4032"	-0.11	0.37	0.74
"4033"	-0.11	0.38	0.73
"4034"	-0.11	0.39	0.72
"4035"	-0.11	0.4	0.71
"4036"	-0.11	0.41	0.7
"4037"	-0.11	0.42	0.69
"4038"	-0.11	0.43	0.68
"4039"	-0.11	0.44	0.67
"4040"	-0.11	0.45	0.66
"4041"	-0.11	0.46	0.65
"4042"	-0.11	0.47	0.64
"4043"	-0.11	0.48	0.63
"4044"	-0.11	0.49	0.62
"4045"	-0.11	0.5	0.61
"4046"	-0.11	0.51	0.6
"4047"	-0.11	0.52	0.59
"4048"	-0.11	0.53	0.58
"4049"	-0.11	0.54	0.57
"4050"	-0.11	0.55	0.56
"4051"	-0.11	0.56	0.55
"4052"	-0.11	0.57	0.54
"4053"	-0.11	0.58	0.53
"4054"	-0.11	0.59	0.52
"4055"	-0.11	0.6	0.51
"4056"	-0.11	0.61	0.5
"4057"	-0.11	0.62	0.49
"4058"	-0.11	0.63	0.48
"4059"	-0.11	0.64	0.47
"4060"	-0.11	0.65	0.46
"4061"	-0.11	0.66	0.45
"4062"	-0.11	0.67	0.44
"4063"	-0.11	0.68	0.43
"4064"	-0.11	0.69	0.42
"4065"	-0.11	0.7	0.41
"4066"	-0.11	0.71	0.4
"4067"	-0.11	0.72	0.39
"4068"	-0.11	0.73	0.38
"4069"	-0.11	0.74	0.37
"4070"	-0.11	0.75	0.36
"4071"	-0.11	0.76	0.35
"4072"	-0.11	0.77	0.34
"4073"	-0.11	0.78	0.33
"4074"	-0.11	0.79	0.32
"4075"	-0.11	0.8	0.31
"4076"	-0.11	0.81	0.3
"4077"	-0.11	0.82	0.29
"4078"	-0.11	0.83	0.28
"4079"	-0.11	0.84	0.27
"4080"	-0.11	0.85	0.26
"4081"	-0.11	0.86	0.25
"4082"	-0.11	0.87	0.24
"4083"	-0.11	0.88	0.23
"4084"	-0.11	0.89	0.22
"4085"	-0.11	0.9	0.21
"4086"	-0.11	0.91	0.2
"4087"	-0.11	0.92	0.19
"4088"	-0.11	0.93	0.18
"4089"	-0.11	0.94	0.17
"4090"	-0.11	0.95	0.16
"4091"	-0.11	0.96	0.15
"4092"	-0.11	0.97	0.14
"4093"	-0.11	0.98	0.13
"4094"	-0.11	0.99	0.12
"4095"	-0.11	1	0.11
"4096"	-0.1	0.1	1
"4097"	-0.1	0.11	0.99
"4098"	-0.1	0.12	0.98
"4099"	-0.1	0.13	0.97
"4100"	-0.1	0.14	0.96
"4101"	-0.1	0.15	0.95
"4102"	-0.1	0.16	0.94
"4103"	-0.1	0.17	0.93
"4104"	-0.1	0.18	0.92
"4105"	-0.1	0.19	0.91
"4106"	-0.1	0.2	0.9
"4107"	-0.1	0.21	0.89
"4108"	-0.1	0.22	0.88
"4109"	-0.1	0.23	0.87
"4110"	-0.1	0.24	0.86
"4111"	-0.1	0.25	0.85
"4112"	-0.1	0.26	0.84
"4113"	-0.1	0.27	0.83
"4114"	-0.1	0.28	0.82
"4115"	-0.1	0.29	0.81
"4116"	-0.1	0.3	0.8
"4117"	-0.1	0.31	0.79
"4118"	-0.1	0.32	0.78
"4119"	-0.1	0.33	0.77
"4120"	-0.1	0.34	0.76
"4121"	-0.1	0.35	0.75
"4122"	-0.1	0.36	0.74
"4123"	-0.1	0.37	0.73
"4124"	-0.1	0.38	0.72
"4125"	-0.1	0.39	0.71
"4126"	-0.1	0.4	0.7
"4127"	-0.1	0.41	0.69
"4128"	-0.1	0.42	0.68
"4129"	-0.1	0.43	0.67
"4130"	-0.1	0.44	0.66
"4131"	-0.1	0.45	0.65
"4132"	-0.1	0.46	0.64
"4133"	-0.1	0.47	0.63
"4134"	-0.1	0.48	0.62
"4135"	-0.1	0.49	0.61
"4136"	-0.1	0.5	0.6
"4137"	-0.1	0.51	0.59
"4138"	-0.1	0.52	0.58
"4139"	-0.1	0.53	0.57
"4140"	-0.1	0.54	0.56
"4141"	-0.1	0.55	0.55
"4142"	-0.1	0.56	0.54
"4143"	-0.1	0.57	0.53
"4144"	-0.1	0.58	0.52
"4145"	-0.1	0.59	0.51
"4146"	-0.1	0.6	0.5
"4147"	-0.1	0.61	0.49
"4148"	-0.1	0.62	0.48
"4149"	-0.1	0.63	0.47
"4150"	-0.1	0.64	0.46
"4151"	-0.1	0.65	0.45
"4152"	-0.1	0.66	0.44
"4153"	-0.1	0.67	0.43
"4154"	-0.1	0.68	0.42
"4155"	-0.1	0.69	0.41
"4156"	-0.1	0.7	0.4
"4157"	-0.1	0.71	0.39
"4158"	-0.1	0.72	0.38
"4159"	-0.1	0.73	0.37
"4160"	-0.1	0.74	0.36
"4161"	-0.1	0.75	0.35
"4162"	-0.1	0.76	0.34
"4163"	-0.1	0.77	0.33
"4164"	-0.1	0.78	0.32
"4165"	-0.1	0.79	0.31
"4166"	-0.1	0.8	0.3
"4167"	-0.1	0.81	0.29
"4168"	-0.1	0.82	0.28
"4169"	-0.1	0.83	0.27
"4170"	-0.1	0.84	0.26
"4171"	-0.1	0.85	0.25
"4172"	-0.1	0.86	0.24
"4173"	-0.1	0.87	0.23
"4174"	-0.1	0.88	0.22
"4175"	-0.1	0.89	0.21
"4176"	-0.1	0.9	0.2
"4177"	-0.1	0.91	0.19
"4178"	-0.1	0.92	0.18
"4179"	-0.1	0.93	0.17
"4180"	-0.1	0.94	0.16
"4181"	-0.1	0.95	0.15
"4182"	-0.1	0.96	0.14
"4183"	-0.1	0.97	0.13
"4184"	-0.1	0.98	0.12
"4185"	-0.1	0.99	0.11
"4186"	-0.1	1	0.1
"4187"	-0.09	0.09	1
"4188"	-0.09	0.1	0.99
"4189"	-0.09	0.11	0.98
"4190"	-0.09	0.12	0.97
"4191"	-0.09	0.13	0.96
"4192"	-0.09	0.14	0.95
"4193"	-0.09	0.15	0.94
"4194"	-0.09	0.16	0.93
"4195"	-0.09	0.17	0.92
"4196"	-0.09	0.18	0.91
"4197"	-0.09	0.19	0.9
"4198"	-0.09	0.2	0.89
"4199"	-0.09	0.21	0.88
"4200"	-0.09	0.22	0.87
"4201"	-0.09	0.23	0.86
"4202"	-0.09	0.24	0.85
"4203"	-0.09	0.25	0.84
"4204"	-0.09	0.26	0.83
"4205"	-0.09	0.27	0.82
"4206"	-0.09	0.28	0.81
"4207"	-0.09	0.29	0.8
"4208"	-0.09	0.3	0.79
"4209"	-0.09	0.31	0.78
"4210"	-0.09	0.32	0.77
"4211"	-0.09	0.33	0.76
"4212"	-0.09	0.34	0.75
"4213"	-0.09	0.35	0.74
"4214"	-0.09	0.36	0.73
"4215"	-0.09	0.37	0.72
"4216"	-0.09	0.38	0.71
"4217"	-0.09	0.39	0.7
"4218"	-0.09	0.4	0.69
"4219"	-0.09	0.41	0.68
"4220"	-0.09	0.42	0.67
"4221"	-0.09	0.43	0.66
"4222"	-0.09	0.44	0.65
"4223"	-0.09	0.45	0.64
"4224"	-0.09	0.46	0.63
"4225"	-0.09	0.47	0.62
"4226"	-0.09	0.48	0.61
"4227"	-0.09	0.49	0.6
"4228"	-0.09	0.5	0.59
"4229"	-0.09	0.51	0.58
"4230"	-0.09	0.52	0.57
"4231"	-0.09	0.53	0.56
"4232"	-0.09	0.54	0.55
"4233"	-0.09	0.55	0.54
"4234"	-0.09	0.56	0.53
"4235"	-0.09	0.57	0.52
"4236"	-0.09	0.58	0.51
"4237"	-0.09	0.59	0.5
"4238"	-0.09	0.6	0.49
"4239"	-0.09	0.61	0.48
"4240"	-0.09	0.62	0.47
"4241"	-0.09	0.63	0.46
"4242"	-0.09	0.64	0.45
"4243"	-0.09	0.65	0.44
"4244"	-0.09	0.66	0.43
"4245"	-0.09	0.67	0.42
"4246"	-0.09	0.68	0.41
"4247"	-0.09	0.69	0.4
"4248"	-0.09	0.7	0.39
"4249"	-0.09	0.71	0.38
"4250"	-0.09	0.72	0.37
"4251"	-0.09	0.73	0.36
"4252"	-0.09	0.74	0.35
"4253"	-0.09	0.75	0.34
"4254"	-0.09	0.76	0.33
"4255"	-0.09	0.77	0.32
"4256"	-0.09	0.78	0.31
"4257"	-0.09	0.79	0.3
"4258"	-0.09	0.8	0.29
"4259"	-0.09	0.81	0.28
"4260"	-0.09	0.82	0.27
"4261"	-0.09	0.83	0.26
"4262"	-0.09	0.84	0.25
"4263"	-0.09	0.85	0.24
"4264"	-0.09	0.86	0.23
"4265"	-0.09	0.87	0.22
"4266"	-0.09	0.88	0.21
"4267"	-0.09	0.89	0.2
"4268"	-0.09	0.9	0.19
"4269"	-0.09	0.91	0.18
"4270"	-0.09	0.92	0.17
"4271"	-0.09	0.93	0.16
"4272"	-0.09	0.94	0.15
"4273"	-0.09	0.95	0.14
"4274"	-0.09	0.96	0.13
"4275"	-0.09	0.97	0.12
"4276"	-0.09	0.98	0.11
"4277"	-0.09	0.99	0.1
"4278"	-0.09	1	0.09
"4279"	-0.08	0.08	1
"4280"	-0.08	0.09	0.99
"4281"	-0.08	0.1	0.98
"4282"	-0.08	0.11	0.97
"4283"	-0.08	0.12	0.96
"4284"	-0.08	0.13	0.95
"4285"	-0.08	0.14	0.94
"4286"	-0.08	0.15	0.93
"4287"	-0.08	0.16	0.92
"4288"	-0.08	0.17	0.91
"4289"	-0.08	0.18	0.9
"4290"	-0.08	0.19	0.89
"4291"	-0.08	0.2	0.88
"4292"	-0.08	0.21	0.87
"4293"	-0.08	0.22	0.86
"4294"	-0.08	0.23	0.85
"4295"	-0.08	0.24	0.84
"4296"	-0.08	0.25	0.83
"4297"	-0.08	0.26	0.82
"4298"	-0.08	0.27	0.81
"4299"	-0.08	0.28	0.8
"4300"	-0.08	0.29	0.79
"4301"	-0.08	0.3	0.78
"4302"	-0.08	0.31	0.77
"4303"	-0.08	0.32	0.76
"4304"	-0.08	0.33	0.75
"4305"	-0.08	0.34	0.74
"4306"	-0.08	0.35	0.73
"4307"	-0.08	0.36	0.72
"4308"	-0.08	0.37	0.71
"4309"	-0.08	0.38	0.7
"4310"	-0.08	0.39	0.69
"4311"	-0.08	0.4	0.68
"4312"	-0.08	0.41	0.67
"4313"	-0.08	0.42	0.66
"4314"	-0.08	0.43	0.65
"4315"	-0.08	0.44	0.64
"4316"	-0.08	0.45	0.63
"4317"	-0.08	0.46	0.62
"4318"	-0.08	0.47	0.61
"4319"	-0.08	0.48	0.6
"4320"	-0.08	0.49	0.59
"4321"	-0.08	0.5	0.58
"4322"	-0.08	0.51	0.57
"4323"	-0.08	0.52	0.56
"4324"	-0.08	0.53	0.55
"4325"	-0.08	0.54	0.54
"4326"	-0.08	0.55	0.53
"4327"	-0.08	0.56	0.52
"4328"	-0.08	0.57	0.51
"4329"	-0.08	0.58	0.5
"4330"	-0.08	0.59	0.49
"4331"	-0.08	0.6	0.48
"4332"	-0.08	0.61	0.47
"4333"	-0.08	0.62	0.46
"4334"	-0.08	0.63	0.45
"4335"	-0.08	0.64	0.44
"4336"	-0.08	0.65	0.43
"4337"	-0.08	0.66	0.42
"4338"	-0.08	0.67	0.41
"4339"	-0.08	0.68	0.4
"4340"	-0.08	0.69	0.39
"4341"	-0.08	0.7	0.38
"4342"	-0.08	0.71	0.37
"4343"	-0.08	0.72	0.36
"4344"	-0.08	0.73	0.35
"4345"	-0.08	0.74	0.34
"4346"	-0.08	0.75	0.33
"4347"	-0.08	0.76	0.32
"4348"	-0.08	0.77	0.31
"4349"	-0.08	0.78	0.3
"4350"	-0.08	0.79	0.29
"4351"	-0.08	0.8	0.28
"4352"	-0.08	0.81	0.27
"4353"	-0.08	0.82	0.26
"4354"	-0.08	0.83	0.25
"4355"	-0.08	0.84	0.24
"4356"	-0.08	0.85	0.23
"4357"	-0.08	0.86	0.22
"4358"	-0.08	0.87	0.21
"4359"	-0.08	0.88	0.2
"4360"	-0.08	0.89	0.19
"4361"	-0.08	0.9	0.18
"4362"	-0.08	0.91	0.17
"4363"	-0.08	0.92	0.16
"4364"	-0.08	0.93	0.15
"4365"	-0.08	0.94	0.14
"4366"	-0.08	0.95	0.13
"4367"	-0.08	0.96	0.12
"4368"	-0.08	0.97	0.11
"4369"	-0.08	0.98	0.1
"4370"	-0.08	0.99	0.09
"4371"	-0.08	1	0.08
"4372"	-0.07	0.07	1
"4373"	-0.07	0.08	0.99
"4374"	-0.07	0.09	0.98
"4375"	-0.07	0.1	0.97
"4376"	-0.07	0.11	0.96
"4377"	-0.07	0.12	0.95
"4378"	-0.07	0.13	0.94
"4379"	-0.07	0.14	0.93
"4380"	-0.07	0.15	0.92
"4381"	-0.07	0.16	0.91
"4382"	-0.07	0.17	0.9
"4383"	-0.07	0.18	0.89
"4384"	-0.07	0.19	0.88
"4385"	-0.07	0.2	0.87
"4386"	-0.07	0.21	0.86
"4387"	-0.07	0.22	0.85
"4388"	-0.07	0.23	0.84
"4389"	-0.07	0.24	0.83
"4390"	-0.07	0.25	0.82
"4391"	-0.07	0.26	0.81
"4392"	-0.07	0.27	0.8
"4393"	-0.07	0.28	0.79
"4394"	-0.07	0.29	0.78
"4395"	-0.07	0.3	0.77
"4396"	-0.07	0.31	0.76
"4397"	-0.07	0.32	0.75
"4398"	-0.07	0.33	0.74
"4399"	-0.07	0.34	0.73
"4400"	-0.07	0.35	0.72
"4401"	-0.07	0.36	0.71
"4402"	-0.07	0.37	0.7
"4403"	-0.07	0.38	0.69
"4404"	-0.07	0.39	0.68
"4405"	-0.07	0.4	0.67
"4406"	-0.07	0.41	0.66
"4407"	-0.07	0.42	0.65
"4408"	-0.07	0.43	0.64
"4409"	-0.07	0.44	0.63
"4410"	-0.07	0.45	0.62
"4411"	-0.07	0.46	0.61
"4412"	-0.07	0.47	0.6
"4413"	-0.07	0.48	0.59
"4414"	-0.07	0.49	0.58
"4415"	-0.07	0.5	0.57
"4416"	-0.07	0.51	0.56
"4417"	-0.07	0.52	0.55
"4418"	-0.07	0.53	0.54
"4419"	-0.07	0.54	0.53
"4420"	-0.07	0.55	0.52
"4421"	-0.07	0.56	0.51
"4422"	-0.07	0.57	0.5
"4423"	-0.07	0.58	0.49
"4424"	-0.07	0.59	0.48
"4425"	-0.07	0.6	0.47
"4426"	-0.07	0.61	0.46
"4427"	-0.07	0.62	0.45
"4428"	-0.07	0.63	0.44
"4429"	-0.07	0.64	0.43
"4430"	-0.07	0.65	0.42
"4431"	-0.07	0.66	0.41
"4432"	-0.07	0.67	0.4
"4433"	-0.07	0.68	0.39
"4434"	-0.07	0.69	0.38
"4435"	-0.07	0.7	0.37
"4436"	-0.07	0.71	0.36
"4437"	-0.07	0.72	0.35
"4438"	-0.07	0.73	0.34
"4439"	-0.07	0.74	0.33
"4440"	-0.07	0.75	0.32
"4441"	-0.07	0.76	0.31
"4442"	-0.07	0.77	0.3
"4443"	-0.07	0.78	0.29
"4444"	-0.07	0.79	0.28
"4445"	-0.07	0.8	0.27
"4446"	-0.07	0.81	0.26
"4447"	-0.07	0.82	0.25
"4448"	-0.07	0.83	0.24
"4449"	-0.07	0.84	0.23
"4450"	-0.07	0.85	0.22
"4451"	-0.07	0.86	0.21
"4452"	-0.07	0.87	0.2
"4453"	-0.07	0.88	0.19
"4454"	-0.07	0.89	0.18
"4455"	-0.07	0.9	0.17
"4456"	-0.07	0.91	0.16
"4457"	-0.07	0.92	0.15
"4458"	-0.07	0.93	0.14
"4459"	-0.07	0.94	0.13
"4460"	-0.07	0.95	0.12
"4461"	-0.07	0.96	0.11
"4462"	-0.07	0.97	0.1
"4463"	-0.07	0.98	0.09
"4464"	-0.07	0.99	0.08
"4465"	-0.07	1	0.07
"4466"	-0.06	0.06	1
"4467"	-0.06	0.07	0.99
"4468"	-0.06	0.08	0.98
"4469"	-0.06	0.09	0.97
"4470"	-0.06	0.1	0.96
"4471"	-0.06	0.11	0.95
"4472"	-0.06	0.12	0.94
"4473"	-0.06	0.13	0.93
"4474"	-0.06	0.14	0.92
